svm_type c_svc
kernel_type rbf
gamma 0.01
nr_class 8
total_sv 2512
rho 1.42618 -5.79152 -1.47006 0.273195 -2.72658 -4.46683 0.175448 -5.65091 -1.67011 -0.0281817 -2.49333 -4.49861 1.06368 -0.47926 0.377761 -1.07772 0.00674376 3.98005 -1.74988 0.482434 1.90187 1.58696 -0.9261 0.0203282 -0.0844474 2.55776 2.44389 1.07953
label 0 1 2 3 4 5 6 7
nr_sv 332 341 586 338 285 96 399 135
SV
10 0 0 0 0 0 0 1:-0.95727 2:-0.467717 3:-0.931928 4:0.123587 5:0.197452 6:0.153004 7:-0.998164 8:-1 9:-1 10:-0.100463 11:-0.580997 12:-0.517911 13:-0.148921 14:-1 15:-1 16:-0.92 17:-0.870254 18:-0.999988 
10 0 0 0 0 0 0 1:-0.95727 2:-0.467717 3:-0.931928 4:0.123587 5:0.197452 6:0.153004 7:-0.998164 8:-1 9:-1 10:-0.100463 11:-0.580997 12:-0.517911 13:-0.148921 14:-1 15:-1 16:-0.92 17:-0.870254 18:-0.999988 
10 0 0.1026340046523702 0 10 0 0 1:-0.975088 2:-0.49851 3:-0.828943 4:-0.462708 5:-0.772763 6:0.505565 7:-0.986536 8:-0.989664 9:-0.994505 10:-0.157379 11:-0.546676 12:-0.485124 13:-0.28705 14:-0.818182 15:-0.8 16:-0.92 17:-0.82241 18:-0.999789 
10 0 0 0 5.558680920989811 0 0 1:-0.979208 2:-0.488752 3:-0.890756 4:0.156119 5:-0.269811 6:0.405841 7:-0.98776 8:-0.997416 9:-0.987912 10:-0.14358 11:-0.556161 12:-0.494839 13:-0.205036 14:-0.727273 15:-0.866667 16:-0.68 17:-0.87111 18:-0.999816 
10 0 0 0 0 0 10 1:-0.914831 2:-0.506661 3:-0.883986 4:0.451113 5:-0.29509 6:-0.396191 7:-0.99694 8:-0.995693 9:-0.986813 10:0.00484096 11:-0.533823 12:-0.474196 13:-0.213669 14:-0.727273 15:-0.933333 16:-0.92 17:-0.80431 18:-0.999952 
10 0 0 0 0 0 0 1:-0.992493 2:-0.47712 3:-0.856064 4:0.38107 5:-0.370654 6:-0.513459 7:-0.99694 8:-0.995693 9:-0.991209 10:-0.188104 11:-0.569052 12:-0.508197 13:-0.258273 14:-0.909091 15:-0.866667 16:-0.84 17:-0.844855 18:-0.999958 
10 0 0 0 0 0 0 1:-0.866174 2:-0.489566 3:-0.940692 4:0.501808 5:-0.0442222 6:-0.142218 7:-0.99694 8:-0.990525 9:-0.994505 10:0.11172 11:-0.555265 12:-0.493625 13:-0.134532 14:-0.909091 15:-1 16:-0.76 17:-0.793189 18:-0.999971 
10 0 0 0.7271151271605633 0 0 10 1:-0.825631 2:-0.503271 3:-0.93395 4:0.171338 5:-0.449807 6:0.0223132 7:-0.992656 8:-0.995693 9:-0.994505 10:0.209821 11:-0.53931 12:-0.479053 13:-0.143165 14:-0.909091 15:-1 16:-1 17:-0.750697 18:-0.999975 
10 10 10 10 10 10 10 1:-0.88891 2:-0.545714 3:-0.846744 4:-0.00084058 5:0.0294623 6:0.0992396 7:-0.99694 8:-0.995693 9:-0.998901 10:-0.496078 11:-0.490244 12:-0.429265 13:-0.269784 14:0.0909091 15:0.266667 16:-0.6 17:-0.773046 18:-0.999977 
10 10 0 0 0 10 10 1:-0.923181 2:-0.499869 3:-0.906243 4:0.00856117 5:0.124667 6:0.254821 7:-0.993268 8:-0.993971 9:-1 10:-0.0241418 11:-0.543321 12:-0.480267 13:-0.183453 14:-0.272727 15:-0.6 16:-0.28 17:-0.83763 18:-0.999954 
10 10 0 10 10 10 10 1:-0.952441 2:-0.513708 3:-0.892903 4:0.089953 5:-0.0284776 6:-0.221671 7:-0.990208 8:-0.991387 9:-0.989011 10:-0.0952126 11:-0.525347 12:-0.464481 13:-0.202158 14:0.545455 15:-0.0666667 16:0.44 17:-0.874375 18:-0.999898 
0 10 0 0 10 10 0 1:-0.981317 2:-0.474896 3:-0.87372 4:0.142559 5:-0.322219 6:-0.376773 7:-0.992656 8:-0.996555 9:-0.991209 10:-0.262515 11:-0.573252 12:-0.51184 13:-0.239568 14:-0.545455 15:-0.8 16:-0.92 17:-0.847616 18:-0.999933 
10 0 0 0 0 0 0 1:-0.94861 2:-0.480988 3:-0.913969 4:0.134322 5:-0.139404 6:-0.313677 7:-1 8:-1 9:-0.994505 10:-0.0777809 11:-0.565104 12:-0.502125 13:-0.171942 14:-1 15:-1 16:-1 17:-0.85346 18:-0.999994 
10 0 0 0 0 0 0 1:-0.937677 2:-0.482729 3:-0.937852 4:0.0168614 5:-0.0055048 6:-0.0959884 7:-0.99694 8:-1 9:-0.994505 10:-0.0498903 11:-0.563994 12:-0.500911 13:-0.143165 14:-0.909091 15:-0.933333 16:-1 17:-0.866839 18:-0.999942 
10 10 10 0 10 10 10 1:-0.969127 2:-0.495329 3:-0.840756 4:0.269365 5:-0.684607 6:-0.170263 7:-0.983476 8:-0.992248 9:-0.978022 10:-0.154879 11:-0.553109 12:-0.490589 13:-0.27554 14:-0.545455 15:-0.6 16:-0.36 17:-0.830373 18:-0.999618 
10 0 0 0 10 0 0 1:-0.971327 2:-0.498958 3:-0.864715 4:-0.315755 5:-0.621606 6:0.629718 7:-0.988984 8:-0.991387 9:-0.984615 10:-0.136082 11:-0.545906 12:-0.485124 13:-0.239568 14:-0.636364 15:-0.866667 16:-0.6 17:-0.84981 18:-0.999918 
10 0 0 0 0 0 0 1:-0.961866 2:-0.513181 3:-0.843925 4:-0.0237359 5:0.126932 6:-0.241289 7:-0.99694 8:-1 9:-0.986813 10:-0.110712 11:-0.527793 12:-0.466909 13:-0.274101 14:-0.545455 15:-1 16:-0.92 17:-0.828757 18:-0.999957 
0 10 0 0 0 10 0 1:-0.917756 2:-0.487694 3:-0.900007 4:-0.136976 5:0.175758 6:-0.288658 7:-0.985924 8:-0.993109 9:-0.987912 10:-0.0182192 11:-0.563994 12:-0.502125 13:0.0985612 14:-0.272727 15:-0.533333 16:-0.6 17:-0.812199 18:-0.999624 
10 10 0 0 0 10 0 1:-0.893097 2:-0.47818 3:-0.881354 4:0.189539 5:0.549306 6:-0.161032 7:-0.943084 8:-0.985357 9:-0.954945 10:-0.0965987 11:-0.558696 12:-0.503339 13:0.0510791 14:-0.636364 15:-0.333333 16:-0.68 17:-0.867728 18:-0.996594 
10 0 0 0 0 0 0 1:-0.897281 2:-0.481428 3:-0.952742 4:-0.147125 5:-0.610799 6:0.0103376 7:-0.992656 8:-0.991387 9:-0.994505 10:0.0482941 11:-0.564549 12:-0.502125 13:0.0251799 14:-0.818182 15:-0.6 16:-1 17:-0.830362 18:-0.999955 
10 10 1.661371336053606 0 0 10 10 1:-0.937488 2:-0.488113 3:-0.888268 4:0.670084 5:-0.662439 6:-0.733279 7:-0.977356 8:-0.993109 9:-0.987912 10:-0.0697372 11:-0.556275 12:-0.493625 13:-0.203597 14:-0.727273 15:-0.733333 16:-0.76 17:-0.834408 18:-0.999646 
10 0 0 0 10 0 0 1:-0.94743 2:-0.49215 3:-0.863981 4:-0.28142 5:-0.556839 6:0.247164 7:-0.99694 8:-0.995693 9:-0.986813 10:-0.0774869 11:-0.55495 12:-0.493625 13:-0.235252 14:-0.545455 15:-0.866667 16:-0.76 17:-0.81557 18:-0.999897 
10 10 0 0 0 0.1219671841051589 0 1:-0.957691 2:-0.484207 3:-0.89773 4:0.467746 5:-0.517388 6:-0.588891 7:-0.988984 8:-0.997416 9:-0.986813 10:-0.104895 11:-0.560777 12:-0.498482 13:-0.197842 14:-0.727273 15:-0.733333 16:-0.6 17:-0.853878 18:-0.999876 
10 10 0 0 0 0 0 1:-0.939339 2:-0.488037 3:-0.928717 4:0.178973 5:-0.477305 6:-0.195979 7:-0.993268 8:-0.993971 9:-0.986813 10:-0.0592152 11:-0.555505 12:-0.493625 13:-0.153237 14:-0.636364 15:-0.666667 16:-0.76 17:-0.868402 18:-0.999943 
10 10 0 0 0 10 0 1:-0.964573 2:-0.471702 3:-0.933127 4:-0.0920779 5:0.159246 6:0.0595357 7:-0.99082 8:-0.990525 9:-0.995604 10:-0.129551 11:-0.575018 12:-0.513054 13:-0.146043 15:-0.0666667 16:-0.36 17:-0.892613 18:-0.999933 
10 10 10 0 10 10 10 1:-0.944833 2:-0.477583 3:-0.940201 4:0.124658 5:-0.229498 6:0.164352 7:-0.99082 8:-0.993971 9:-0.989011 10:-0.0878619 11:-0.566882 12:-0.503339 13:-0.134532 15:0.133333 16:-0.2 17:-0.888278 18:-0.9999 
10 10 10 0 10 10 0 1:-0.942872 2:-0.480158 3:-0.958295 4:0.203074 5:-0.0713408 6:0.329622 7:-0.985312 8:-0.990525 9:-0.986813 10:-0.0740846 11:-0.567715 12:-0.505768 13:-0.102878 14:-0.0909091 15:-0.0666667 16:0.04 17:-0.902011 18:-0.999812 
3.150099663210102 10 0 0 10 0 0 1:-0.975991 2:-0.47887 3:-0.883669 4:-0.398741 5:-0.230874 6:0.412279 7:-0.99694 8:-0.995693 9:-0.986813 10:-0.288599 11:-0.566908 12:-0.505768 13:-0.21223 14:-0.545455 15:-0.666667 16:-0.52 17:-0.857431 18:-0.999946 
10 0 0 0 0 0 0 1:-0.977689 2:-0.481387 3:-0.864952 4:0.0783351 5:0.0534662 6:0.10306 7:-0.99388 8:-0.990525 9:-0.989011 10:-0.28526 11:-0.564662 12:-0.504554 13:-0.246763 14:-0.727273 15:-0.866667 16:-0.76 17:-0.834676 18:-0.999954 
10 10 0 0 10 10 0 1:-0.980493 2:-0.486636 3:-0.850168 4:-0.13887 5:0.03469 6:-0.0564807 7:-0.99388 8:-0.995693 9:-0.994505 10:-0.276061 11:-0.558192 12:-0.496053 13:-0.264029 14:-0.363636 15:-0.733333 16:-0.68 17:-0.832374 18:-0.999965 
0 10 0 0 0 0 0 1:-0.967701 2:-0.475559 3:-0.969909 4:-0.18464 5:-0.194053 6:0.0119343 7:-0.995716 8:-0.992248 9:-0.989011 10:-0.132869 11:-0.574324 12:-0.51184 13:-0.0899281 14:-0.545455 15:-0.733333 16:-0.76 17:-0.937546 18:-0.999956 
0 10 0 0 0 10 0 1:-0.959588 2:-0.482408 3:-0.988588 4:0.346191 5:0.363958 6:0.397117 7:-0.991432 8:-0.995693 9:-0.987912 10:-0.101429 11:-0.562934 12:-0.500911 13:-0.0323741 14:-0.545455 15:-0.733333 16:-0.92 17:-0.952359 18:-0.999907 
10 0 0 0 0 0 0 1:-0.903141 2:-0.475448 3:-0.99463 4:-0.168278 5:-0.197211 6:-0.266317 7:-0.995716 8:-0.997416 9:-0.994505 10:0.0312615 11:-0.572672 12:-0.51184 13:-0.0496403 14:-0.818182 15:-0.933333 16:-0.76 17:-0.883162 18:-0.999974 
0 10 0 0 0 0 0 1:-0.90763 2:-0.468515 3:-0.981026 4:0.347361 5:0.0917861 6:-0.433726 7:-0.992656 8:-0.996555 9:-0.992308 10:0.0168121 11:-0.580606 12:-0.517911 13:-0.0107914 14:-0.454545 15:-0.933333 16:-0.84 17:-0.862697 18:-0.999948 
10 0 0 0 0 0 0 1:-0.923715 2:-0.470132 3:-0.981692 4:0.0571959 5:0.333551 6:-0.430528 7:-0.98776 8:-0.995693 9:-0.982418 10:-0.0202354 11:-0.577616 12:-0.516697 13:-0.0611511 14:-1 15:-1 16:-1 17:-0.894219 18:-0.999842 
10 0 0 0 0 0 0 1:-0.883841 2:-0.486015 3:-0.9839 4:-0.0662725 5:-0.399153 6:-0.323896 7:-0.995104 8:-0.990525 9:-0.994505 10:0.0746936 11:-0.557763 12:-0.497268 13:-0.071223 14:-1 15:-0.866667 16:-0.92 17:-0.858544 18:-0.999962 
10 0 0 0 0 0 0 1:-0.911466 2:-0.484229 3:-0.9913 4:0.242284 5:-0.101338 6:0.134538 7:-0.99694 8:-0.999139 9:-0.991209 10:0.00962942 11:-0.561787 12:-0.500304 13:-0.0395683 14:-0.909091 15:-0.8 16:-0.84 17:-0.8988 18:-0.999946 
0 10 0 0 0 0 0 1:-0.981979 2:-0.476128 3:-0.960587 4:-0.053275 5:-0.5051 6:-0.204962 7:-0.980416 8:-0.993109 9:-0.986813 10:-0.234603 11:-0.569973 12:-0.506982 13:-0.101439 14:-0.636364 15:-0.6 16:-0.68 17:-0.959349 18:-0.999693 
0 10 0 0 0 10 0 1:-0.938034 2:-0.480063 3:-0.955049 4:-0.338528 5:0.356272 6:-0.526242 7:-0.990208 8:-0.991387 9:-0.992308 10:-0.364668 11:-0.566592 12:-0.504554 13:0.00935252 14:-0.545455 15:-0.6 16:-0.84 17:-0.897836 18:-0.999851 
10 0 0 0 0 0 0 1:-0.915257 2:-0.488994 3:-0.946654 4:0.0428154 5:-0.118562 6:-0.0622647 7:-0.992656 8:-0.996555 9:-0.992308 10:0.00545002 11:-0.555556 12:-0.494839 13:0.0309353 14:-1 15:-0.8 16:-0.92 17:-0.855194 18:-0.999941 
10 10 0 0 0 0 10 1:-0.882608 2:-0.499274 3:-0.967883 4:0.238844 5:-0.260951 6:-0.0244795 7:-0.992656 8:-0.991387 9:-0.989011 10:0.0828424 11:-0.542652 12:-0.480267 13:-0.1 14:-0.727273 15:-0.8 16:-0.36 17:-0.846685 18:-0.99995 
10 10 0 0 0 0 0 1:-0.864568 2:-0.505004 3:-0.988816 4:0.610077 5:0.0301291 6:0.61154 7:-0.99082 8:-0.995693 9:-0.995604 10:0.120877 11:-0.538616 12:-0.47541 13:-0.0625899 14:-0.545455 15:-1 16:-0.68 17:-0.856297 18:-0.999954 
0 10 10 0 0 10 0 1:-0.953525 2:-0.462675 3:-0.974028 4:-0.0305503 5:-0.254501 6:0.279421 7:-0.986536 8:-0.990525 9:-0.987912 10:-0.120205 11:-0.588262 12:-0.527626 13:-0.0136691 14:-0.272727 15:0.0666667 16:-0.12 17:-0.926907 18:-0.999759 
0 10 0 0 10 10 -0 1:-0.938185 2:-0.476956 3:-0.984358 4:-0.247641 5:0.00996752 6:0.351222 7:-0.990208 8:-0.990525 9:-0.989011 10:-0.0733915 11:-0.569834 12:-0.506982 13:-0.0532374 14:0.363636 16:0.12 17:-0.936015 18:-0.999868 
10 10 1.261975888802578 3.109598869033266 10 10 10 1:-0.904528 2:-0.483176 3:-0.976406 4:0.227125 5:-0.244642 6:0.212976 7:-0.988984 8:-0.993971 9:-0.98022 10:0.00444193 11:-0.563275 12:-0.499696 13:-0.0582734 14:0.545455 15:-0.333333 16:0.28 17:-0.896413 18:-0.999776 
10 0 0 0 0 0 0 1:-0.895653 2:-0.514263 3:-0.973286 4:0.0721791 5:0.188655 6:-0.259572 7:-0.992656 8:-0.990525 9:-0.994505 10:0.0464669 11:-0.527163 12:-0.465695 13:-0.0913669 14:-1 15:-0.866667 16:-1 17:-0.885217 18:-0.999958 
10 0 0 0 0 0 0 1:-0.901499 2:-0.515763 3:-0.980859 4:-0.0943231 5:-0.171529 6:0.448576 7:-0.99694 8:-0.997416 9:-1 10:0.0388642 11:-0.524337 12:-0.464481 13:-0.0755396 14:-0.818182 15:-0.733333 16:-0.92 17:-0.902375 18:-0.999948 
10 0 0 10 0 0 10 1:-0.849565 2:-0.50793 3:-0.900298 4:-0.224804 5:-0.283795 6:0.248658 7:-0.995716 8:-0.995693 9:-0.994505 10:0.159395 11:-0.537102 12:-0.477839 13:-0.196403 14:-0.909091 15:-1 16:-0.92 17:-0.741364 18:-0.99997 
0 0 10 10 10 4.519379230160634 0 1:-0.89017 2:-0.522598 3:-0.774827 4:0.0978146 5:-0.0367788 6:0.614642 7:-0.99694 8:-0.991387 9:-0.992308 10:-0.49194 11:-0.516214 12:-0.457195 13:0.274101 14:-1 15:-0.666667 16:-1 17:-0.679455 18:-0.999968 
10 10 0 0 0 0 0 1:-0.875082 2:-0.502423 3:-0.960302 4:0.283199 5:-0.0523566 6:0.322817 7:-0.993268 8:-0.995693 9:-0.992308 10:0.0963677 11:-0.539562 12:-0.476624 13:0.0136691 14:-0.636364 15:-0.733333 16:-0.68 17:-0.835446 18:-0.999955 
10 0 0 0 0 0 0 1:-0.937849 2:-0.514856 3:-0.912847 4:-0.0936692 5:-0.22199 6:-0.113138 7:-0.993268 8:-0.995693 9:-0.994505 10:-0.0583541 11:-0.524363 12:-0.463267 13:-0.176259 14:-0.636364 15:-0.8 16:-0.92 17:-0.877607 18:-0.999974 
0 10 0 0 0 0 0 1:-0.930653 2:-0.510289 3:-0.926572 4:0.125714 5:-0.272225 6:-0.273408 7:-0.992656 8:-0.997416 9:-0.989011 10:-0.036659 11:-0.531187 12:-0.470552 13:0.0597122 14:-0.545455 15:-0.8 16:-0.84 17:-0.87704 18:-0.999957 
10 0 0 0 0 0 0 1:-0.921527 2:-0.479746 3:-0.971933 4:-0.0684625 5:-0.163654 6:-0.518686 7:-0.988984 8:-0.995693 9:-0.986813 10:-0.0201724 11:-0.567727 12:-0.505768 13:-0.0913669 14:-0.727273 15:-0.866667 16:-0.84 17:-0.885431 18:-0.999884 
10 10 0 0 0 0 0 1:-0.941722 2:-0.494186 3:-0.899719 4:0.0432346 5:0.0708874 6:-0.301515 7:-0.991432 8:-0.995693 9:-0.993407 10:-0.068561 11:-0.551481 12:-0.488767 13:-0.190647 14:-0.363636 15:-0.866667 16:-0.6 17:-0.848879 18:-0.999919 
10 10 0 0 0 10 0 1:-0.892493 2:-0.238829 3:-0.922645 4:-0.863772 5:0.714105 6:-0.865089 7:-0.98776 8:-0.993971 9:-0.981319 10:-0.0337817 11:-0.535853 12:-0.49241 13:-0.135971 14:-0.454545 15:-0.6 16:-0.52 17:-0.871774 18:-0.973436 
10 0 0 0 0 0 0 1:-0.890007 2:-0.48746 3:-0.990662 4:0.130744 5:0.0777449 6:0.209669 7:-0.99694 8:-0.993971 9:-0.992308 10:0.0518435 11:-0.556729 12:-0.49241 13:-0.0625899 14:-0.727273 15:-1 16:-0.84 17:-0.880005 18:-0.999927 
0 10 10 0 10 10 0 1:-0.952667 2:-0.47522 3:-0.933141 4:0.225344 5:-0.337654 6:-0.638438 7:-0.991432 8:-0.98708 9:-0.962637 10:-0.329385 11:-0.573277 12:-0.513054 13:-0.141007 14:-0.545455 15:-0.533333 16:-0.68 17:-0.879919 18:-0.999644 
10 10 10 0 0 10 0 1:-0.868622 2:-0.479841 3:-0.945625 4:-0.651748 5:0.420734 6:-0.673669 7:-0.891677 8:-0.976744 9:-0.967033 10:-0.299268 11:-0.567084 12:-0.508197 13:-0.114388 14:-0.636364 15:-0.533333 16:-0.36 17:-0.885581 18:-0.986954 
0 10 0 0 10 10 0 1:-0.952248 2:-0.470289 3:-0.944021 4:0.449743 5:-0.560348 6:-0.518638 7:-0.979804 8:-0.986219 9:-0.958242 10:-0.138078 11:-0.579382 12:-0.515483 13:-0.1 14:-0.363636 15:-0.733333 16:-0.6 17:-0.918387 18:-0.999281 
0 0 0 0 10 0 0 1:-0.968497 2:-0.466226 3:-0.950718 4:-0.386237 5:-0.357369 6:0.493372 7:-0.993268 8:-0.990525 9:-1 10:-0.134108 11:-0.583305 12:-0.521554 13:-0.121583 14:-0.545455 15:-0.933333 16:-0.92 17:-0.905575 18:-0.999959 
10 0 0 0 0 0 0 1:-0.972958 2:-0.49966 3:-0.827371 4:0.143349 5:-0.173249 6:-0.318102 7:-0.986536 8:-0.993971 9:-0.987912 10:-0.162986 11:-0.54327 12:-0.479053 13:-0.292806 14:-0.818182 15:-1 16:-0.76 17:-0.826488 18:-0.999812 
10 0 0 0 0 0 10 1:-0.912832 2:-0.508915 3:-0.880686 4:0.506159 5:-0.463614 6:0.0780858 7:-0.993268 8:-0.995693 9:-0.98022 10:0.00920938 11:-0.532965 12:-0.469338 13:-0.226619 14:-1 15:-1 16:-0.92 17:-0.799258 18:-0.999941 
10 0 0 0 0 0 0 1:-0.983394 2:-0.47739 3:-0.852927 4:-0.0536006 5:-0.365217 6:-0.0520807 7:-0.995716 8:-0.995693 9:-0.991209 10:-0.162419 11:-0.569165 12:-0.505768 13:-0.264029 14:-0.909091 15:-0.933333 16:-0.68 17:-0.827365 18:-0.999977 
10 0 0 0 0 0 10 1:-0.866647 2:-0.490593 3:-0.938794 4:0.445574 5:-0.740368 6:-0.551721 7:-0.993268 8:-0.990525 9:-0.97033 10:0.1134 11:-0.554559 12:-0.493625 13:-0.140288 14:-0.727273 15:-0.933333 16:-0.92 17:-0.788737 18:-0.999867 
10 0 0 10 0 0 10 1:-0.825359 2:-0.504721 3:-0.933948 4:0.447357 5:-0.0545777 6:0.333163 7:-0.99694 8:-0.995693 9:-0.994505 10:0.204927 11:-0.539019 12:-0.479053 13:-0.148921 14:-0.909091 15:-0.933333 16:-0.84 17:-0.752174 18:-0.999971 
10 10 10 10 10 10 10 1:-0.886292 2:-0.544507 3:-0.847372 4:0.0683238 5:-0.0496724 6:0.0149234 7:-0.99694 8:-0.993971 9:-0.998901 10:-0.49696 11:-0.490193 12:-0.429265 13:-0.268345 14:-0.181818 15:0.133333 16:-0.36 17:-0.773549 18:-0.999978 
10 0 0 0 0 0 0 1:-0.925675 2:-0.499904 3:-0.907447 4:-0.082902 5:0.169121 6:0.216125 7:-0.99694 8:-0.993971 9:-1 10:-0.0238478 11:-0.543661 12:-0.480267 13:-0.183453 14:-0.454545 15:-1 16:-0.68 17:-0.837277 18:-0.999978 
10 10 0 0 10 10 0 1:-0.956812 2:-0.513394 3:-0.894475 4:-0.170596 5:-0.00410088 6:0.115852 7:-0.991432 8:-0.993971 9:-0.992308 10:-0.105126 11:-0.5271 12:-0.464481 13:-0.197842 14:0.363636 15:-0.4 16:-0.28 17:-0.880561 18:-0.999946 
10 0 0 0 0 0 0 1:-0.979048 2:-0.475548 3:-0.87436 4:0.147096 5:0.301859 6:-0.510582 7:-0.992044 8:-0.996555 9:-0.984615 10:-0.275935 11:-0.572054 12:-0.508197 13:-0.236691 14:-0.909091 15:-1 16:-0.92 17:-0.844127 18:-0.99993 
10 0 0 0 0 0 0 1:-0.953465 2:-0.480554 3:-0.91661 4:0.627429 5:-0.187087 6:-0.360136 7:-0.990208 8:-1 9:-0.987912 10:-0.0899621 11:-0.565457 12:-0.502125 13:-0.171942 14:-0.818182 15:-1 16:-0.92 17:-0.862665 18:-0.99994 
10 0 0 0 0 0 0 1:-0.941304 2:-0.481983 3:-0.937522 4:-0.230587 5:-0.00317491 6:-0.25843 7:-0.992656 8:-1 9:-0.994505 10:-0.0511504 11:-0.563893 12:-0.500911 13:-0.143165 14:-1 15:-1 16:-1 17:-0.865373 18:-0.999934 
10 0 0 0 0 0 0 1:-0.991124 2:-0.48826 3:-0.857068 4:-0.370341 5:-0.400428 6:0.0646488 7:-0.993268 8:-0.993109 9:-0.998901 10:-0.18529 11:-0.554534 12:-0.493625 13:-0.258273 14:-0.818182 15:-0.8 16:-0.84 17:-0.855012 18:-0.999957 
10 0 0 0 0 0 0 1:-0.980193 2:-0.501424 3:-0.864336 4:0.150331 5:-0.570133 6:-0.516545 7:-0.993268 8:-0.993109 9:-0.983516 10:-0.15154 11:-0.542185 12:-0.480267 13:-0.239568 14:-0.818182 15:-0.8 16:-0.92 17:-0.857067 18:-0.999926 
10 10 0 0 10 0 10 1:-0.948666 2:-0.511274 3:-0.850871 4:0.133315 5:-0.466842 6:0.588223 7:-0.982252 8:-0.993971 9:-0.968132 10:-0.0764788 11:-0.530821 12:-0.469945 13:-0.255396 14:-0.636364 15:-0.866667 16:-1 17:-0.821275 18:-0.999717 
0 10 0 0 0 10 0 1:-0.930238 2:-0.480475 3:-0.878894 4:0.239236 5:-0.194755 6:-0.220224 7:-0.993268 8:-0.993109 9:-0.992308 10:-0.0352309 11:-0.561774 12:-0.499696 13:0.127338 14:-0.454545 15:-0.666667 16:-0.84 17:-0.800928 18:-0.999909 
0 10 0 0 0 10 0 1:-0.925072 2:-0.478067 3:-0.94522 4:0.421176 5:-0.285079 6:-0.0122776 7:-0.993268 8:-0.993971 9:-0.987912 10:-0.0277962 11:-0.570162 12:-0.506982 13:0.0352518 14:-0.727273 15:-0.666667 16:-0.76 17:-0.858748 18:-0.999943 
10 10 0 0 0 0 0 1:-0.894551 2:-0.48307 3:-0.947748 4:-0.0560009 5:-0.215568 6:-0.0472005 7:-0.99388 8:-0.991387 9:-0.994505 10:0.0546997 11:-0.564019 12:-0.500911 13:0.0251799 14:-0.545455 15:-0.8 16:-0.6 17:-0.826926 18:-0.999938 
10 10 0 0 0 10 0 1:-0.950203 2:-0.489817 3:-0.878245 4:-0.390878 5:0.0512305 6:0.075947 7:-0.99694 8:-0.993109 9:-0.995604 10:-0.0845436 11:-0.556211 12:-0.496053 13:-0.223741 14:-0.454545 15:-0.666667 16:-1 17:-0.826488 18:-0.999966 
10 0 0 0 0 0 0 1:-0.971029 2:-0.483057 3:-0.904549 4:0.152031 5:-0.504428 6:-0.649731 7:-0.99082 8:-0.997416 9:-0.982418 10:-0.140787 11:-0.561585 12:-0.498482 13:-0.192086 14:-0.909091 15:-0.866667 16:-0.84 17:-0.878292 18:-0.99992 
0 10 0 0 0 0 0 1:-0.985742 2:-0.481897 3:-0.910643 4:0.0596028 5:-0.297488 6:-0.213036 7:-0.992656 8:-0.994832 9:-0.994505 10:-0.256319 11:-0.562354 12:-0.500911 13:-0.180576 14:-0.545455 15:-0.8 16:-0.68 17:-0.90078 18:-0.999955 
10 0 0 0 0 0 0 1:-0.940897 2:-0.484843 3:-0.940434 4:-0.0355891 5:-0.513419 6:0.312078 7:-0.993268 8:-0.996555 9:-0.987912 10:-0.0635206 11:-0.560134 12:-0.498482 13:-0.134532 14:-0.727273 15:-0.866667 16:-0.84 17:-0.881043 18:-0.999952 
10 10 0 0 0 10 0 1:-0.974805 2:-0.469765 3:-0.933569 4:0.0315691 5:0.299662 6:0.292697 7:-1 8:-0.993971 9:-0.995604 10:-0.149524 11:-0.57585 12:-0.51184 13:-0.146043 14:-0.181818 15:0.2 16:-0.44 17:-0.901604 18:-0.999965 
10 10 0 0 0 10 -0 1:-0.94745 2:-0.479003 3:-0.938948 4:-0.22935 5:-0.0903613 6:0.169421 7:-0.993268 8:-0.992248 9:-0.991209 10:-0.0827374 11:-0.566479 12:-0.503339 13:-0.133094 14:0.181818 15:-0.133333 16:0.2 17:-0.885485 18:-0.999937 
10 10 0 0 0 0 0 1:-0.951189 2:-0.478344 3:-0.956361 4:-0.0645818 5:-0.0494301 6:0.349287 7:-0.990208 8:-0.991387 9:-0.987912 10:-0.0842705 11:-0.568736 12:-0.505768 13:-0.105755 14:-0.363636 15:-0.266667 16:0.12 17:-0.905104 18:-0.999927 
10 0 0 0 0 0 0 1:-0.978312 2:-0.477858 3:-0.882368 4:-0.289478 5:0.033485 6:0.0149841 7:-0.995104 8:-0.995693 9:-0.987912 10:-0.280765 11:-0.567513 12:-0.504554 13:-0.219424 14:-0.818182 15:-0.866667 16:-0.84 17:-0.856254 18:-0.999962 
0 10 0 0 10 0 0 1:-0.98121 2:-0.485552 3:-0.863261 4:-0.434997 5:-0.163815 6:0.234733 7:-0.995716 8:-0.995693 9:-0.99011 10:-0.274675 11:-0.562707 12:-0.498482 13:-0.245324 14:-0.545455 15:-0.733333 16:-0.84 17:-0.843774 18:-0.999961 
10 10 0 0 0 0 0 1:-0.981328 2:-0.48822 3:-0.851018 4:-0.159453 5:-0.0955387 6:-0.454936 7:-0.995716 8:-0.993971 9:-0.992308 10:-0.272932 11:-0.558179 12:-0.496053 13:-0.26259 14:-0.545455 15:-0.8 16:-0.76 17:-0.834248 18:-0.99997 
10 0 0 0 0 0 0 1:-0.902056 2:-0.47472 3:-0.992103 4:-0.346358 5:-0.251213 6:-0.135392 7:-0.995716 8:-0.997416 9:-0.982418 10:0.0288883 11:-0.573479 12:-0.510625 13:-0.0453237 14:-0.818182 15:-0.8 16:-0.76 17:-0.881107 18:-0.999942 
10 0 0 0 0 0 0 1:-0.90474 2:-0.46645 3:-0.980719 4:0.297304 5:-0.737741 6:-0.214996 7:-0.99694 8:-1 9:-0.994505 10:0.0275441 11:-0.58251 12:-0.52034 13:-0.0165468 14:-1 15:-1 16:-0.68 17:-0.858641 18:-0.999967 
0.05397000727180499 0 0 0 0 0 0 1:-0.910997 2:-0.470861 3:-0.982297 4:-0.35117 5:-0.111938 6:0.119897 7:-0.993268 8:-0.995693 9:-0.987912 10:0.00589106 11:-0.577263 12:-0.516697 13:-0.0669065 14:-0.727273 15:-1 16:-0.92 17:-0.879812 18:-0.999945 
10 0 0 0 0 0 0 1:-0.885004 2:-0.485955 3:-0.986467 4:0.0357653 5:0.224135 6:-0.0887107 7:-0.993268 8:-0.995693 9:-0.994505 10:0.0674689 11:-0.560866 12:-0.497268 13:-0.071223 14:-0.909091 15:-0.866667 16:-0.92 17:-0.862376 18:-0.999975 
0 0 0 0 6.012908460244438 0 0 1:-0.947967 2:-0.477892 3:-0.948875 4:-0.403793 5:-0.480884 6:0.303618 7:-0.9694 8:-0.990525 9:-0.986813 10:-0.329175 11:-0.568282 12:-0.504554 13:0.0266187 14:-0.818182 15:-0.666667 16:-0.76 17:-0.903948 18:-0.999377 
10 0 0 0 0 0 0 1:-0.902342 2:-0.492237 3:-0.945159 4:0.278738 5:-0.111449 6:0.301693 7:-0.99694 8:-0.993971 9:-0.991209 10:0.0383812 11:-0.551431 12:-0.489982 13:0.0352518 14:-1 15:-0.866667 16:-0.76 17:-0.839942 18:-0.999965 
10 10 0 0 0 0 0 1:-0.878199 2:-0.501901 3:-0.970012 4:0.109984 5:-0.259825 6:-0.147454 7:-0.995716 8:-0.994832 9:-0.99011 10:0.0882819 11:-0.542236 12:-0.480267 13:-0.0928057 14:-0.727273 15:-0.733333 16:-0.68 17:-0.84813 18:-0.999964 
10 10 0 0 0 0 0 1:-0.862221 2:-0.505262 3:-0.989 4:0.50824 5:0.227088 6:0.714558 7:-0.984088 8:-0.999139 9:-0.994505 10:0.116803 11:-0.53661 12:-0.47541 13:-0.0654676 14:-0.727273 15:-0.866667 16:-0.84 17:-0.859208 18:-0.999889 
0 10 0 0 0.720702223642791 10 0 1:-0.952385 2:-0.461533 3:-0.970496 4:-0.265983 5:-0.108502 6:0.243546 7:-0.990208 8:-0.990525 9:-0.987912 10:-0.110796 11:-0.587871 12:-0.527626 13:-0.00791366 14:0.181818 15:-0.133333 16:0.04 17:-0.920271 18:-0.999872 
10 10 0 0 0 10 0 1:-0.933911 2:-0.479035 3:-0.992694 4:0.246019 5:-0.124335 6:0.293192 7:-0.992656 8:-0.993971 9:-0.998901 10:-0.0512764 11:-0.567349 12:-0.504554 13:-0.0553957 14:-0.363636 15:-0.0666667 16:-0.28 17:-0.926693 18:-0.999922 
10 10 0 0 10 10 2.199854391070633 1:-0.918652 2:-0.481527 3:-0.983957 4:0.212025 5:-0.00103281 6:0.528515 7:-0.995716 8:-0.995693 9:-0.987912 10:-0.0190593 11:-0.565344 12:-0.503339 13:-0.0366906 14:0.545455 16:0.28 17:-0.911194 18:-0.999887 
10 0 0 0 0 0 0 1:-0.888707 2:-0.516627 3:-0.974498 4:-0.417861 5:0.0543052 6:0.142879 7:-0.99694 8:-0.995693 9:-0.987912 10:0.0602022 11:-0.526204 12:-0.465695 13:-0.0856115 14:-0.909091 15:-1 16:-0.92 17:-0.883194 18:-0.999968 
10 0 0 0 0 0 0 1:-0.895173 2:-0.512894 3:-0.982247 4:-0.12663 5:-0.0925353 6:0.293008 7:-0.99694 8:-0.995693 9:-0.994505 10:0.047454 11:-0.526507 12:-0.464481 13:-0.0697842 14:-1 15:-0.8 16:-0.84 17:-0.897226 18:-0.999969 
10 10 0 0 0 0 0 1:-0.922133 2:-0.513574 3:-0.981176 4:0.225931 5:0.367808 6:0.618497 7:-0.981028 8:-0.98708 9:-0.967033 10:-0.0298334 11:-0.528084 12:-0.465695 13:-0.0381295 14:-0.545455 15:-0.8 16:-0.52 17:-0.94232 18:-0.999419 
10 10 0 0 0 0 10 1:-0.853294 2:-0.502149 3:-0.901595 4:-0.186488 5:0.205293 6:0.257756 7:-1 8:-0.993971 9:-0.994505 10:0.144693 11:-0.539562 12:-0.477839 13:-0.190647 14:-0.636364 15:-0.933333 16:-1 17:-0.750536 18:-0.999981 
0 0 10 10 0 10 0 1:-0.885937 2:-0.52798 3:-0.778538 4:-0.0843743 5:0.301056 6:-0.0205454 7:-0.995716 8:-0.994832 9:-0.992308 10:-0.500635 11:-0.512885 12:-0.452338 13:0.271223 14:-0.818182 15:-0.733333 16:-0.76 17:-0.679648 18:-0.999965 
10 0 0 0 0 0 0 1:-0.930249 2:-0.486356 3:-0.99828 4:0.474849 5:0.270485 6:0.598114 7:-0.993268 8:-1 9:-1 10:-0.0346638 11:-0.560109 12:-0.497268 13:-0.0496403 14:-0.909091 15:-1 16:-0.92 17:-0.928031 18:-0.999957 
10 10 0 0 0 0 0 1:-0.874847 2:-0.502269 3:-0.951913 4:-0.0644418 5:-0.14809 6:0.24799 7:-0.99694 8:-0.993971 9:-0.986813 10:0.0940995 11:-0.539701 12:-0.477231 13:0.0179856 14:-0.181818 15:-0.866667 16:-0.68 17:-0.832685 18:-0.999947 
10 0 0 0 0 0 0 1:-0.939539 2:-0.512827 3:-0.913989 4:0.116001 5:-0.276938 6:-0.391653 7:-0.992656 8:-0.997416 9:-0.992308 10:-0.0593832 11:-0.525258 12:-0.465695 13:-0.176259 14:-0.727273 15:-0.933333 16:-0.84 17:-0.878763 18:-0.999967 
10 0 0 0 0 0 0 1:-0.907324 2:-0.478931 3:-0.96906 4:0.429418 5:-0.228103 6:-0.477885 7:-0.992656 8:-0.995693 9:-0.982418 10:0.0102385 11:-0.568144 12:-0.504554 13:-0.0956834 14:-0.818182 15:-1 16:-0.92 17:-0.868113 18:-0.999859 
10 0 0 0 0 0 0 1:-0.940716 2:-0.49412 3:-0.902214 4:-0.350598 5:-0.139712 6:0.257726 7:-0.99388 8:-0.995693 9:-0.998901 10:-0.0588161 11:-0.549615 12:-0.488767 13:-0.190647 14:-0.545455 15:-0.8 16:-0.92 17:-0.844255 18:-0.999974 
0 10 0 0 0 0 0 1:-0.932094 2:-0.48639 3:-0.955799 4:0.0505515 5:-0.438863 6:-0.215775 7:-0.995716 8:-0.995693 9:-0.994505 10:-0.0395573 11:-0.557448 12:-0.496053 13:-0.108633 14:-0.181818 15:-0.733333 16:-0.52 17:-0.887047 18:-0.999966 
10 0 0 0 0 0 0 1:-0.897264 2:-0.489005 3:-0.993987 4:0.143713 5:0.34482 6:-0.204909 7:-0.995716 8:-0.993971 9:-0.994505 10:0.0419515 11:-0.557195 12:-0.498482 13:-0.0553957 14:-0.636364 15:-0.933333 16:-1 17:-0.887829 18:-0.99995 
0 10 0 0 0 10 0 1:-0.917098 2:-0.471387 3:-0.970342 4:-0.32447 5:-0.124909 6:-0.4232 7:-0.970624 8:-0.984496 9:-0.954945 10:-0.291896 11:-0.577288 12:-0.51609 13:-0.0625899 14:-0.454545 15:-0.466667 16:-0.6 17:-0.941581 18:-0.997969 
10 10 0 0 0 10 0 1:-0.948159 2:-0.204434 3:-0.956925 4:-0.694574 5:0.888859 6:-0.693901 7:-0.990208 8:-0.995693 9:-0.994505 10:-0.119449 11:-0.558848 12:-0.515483 13:-0.0956834 14:-0.727273 15:-0.666667 16:-0.44 17:-0.921202 18:-0.971449 
10 0 0 0 0 0 0 1:-0.958333 2:-0.468411 3:-0.93106 4:-0.0836611 5:-0.0608304 6:-0.220575 7:-1 8:-0.995693 9:-0.994505 10:-0.0979429 11:-0.580038 12:-0.517911 13:-0.148921 14:-0.909091 15:-0.933333 16:-0.92 17:-0.868787 18:-0.999979 
10 0 0 0 0 0 0 1:-0.967078 2:-0.462847 3:-0.951361 4:0.146726 5:-0.0743628 6:0.4913 7:-0.995104 8:-0.990525 9:-0.998901 10:-0.122893 11:-0.584541 12:-0.522769 13:-0.121583 14:-0.909091 15:-0.8 16:-0.84 17:-0.900512 18:-0.999947 
10 0 0 0 0 0 0 1:-0.958333 2:-0.468411 3:-0.93106 4:-0.0836611 5:-0.0608304 6:-0.220575 7:-1 8:-0.995693 9:-0.994505 10:-0.0979429 11:-0.580038 12:-0.517911 13:-0.148921 14:-0.909091 15:-0.933333 16:-0.92 17:-0.868787 18:-0.999979 
10 0 0 0 10 0 0 1:-0.973762 2:-0.497428 3:-0.824697 4:-0.126725 5:-0.460638 6:0.250444 7:-0.983476 8:-0.993971 9:-0.982418 10:-0.159374 11:-0.544885 12:-0.485124 13:-0.298561 14:-0.727273 15:-0.8 16:-0.92 17:-0.820066 18:-0.999822 
10 0 0 0 0 0 0 1:-0.991053 2:-0.487661 3:-0.901018 4:0.0136132 5:-0.0284775 6:0.438195 7:-0.985924 8:-1 9:-0.996703 10:-0.191276 11:-0.557939 12:-0.496053 13:-0.194964 14:-0.909091 15:-1 16:-0.84 17:-0.902396 18:-0.999915 
10 0 0 0 0 10 0 1:-0.871437 2:-0.262907 3:-0.844038 4:-0.982212 5:0.971871 6:-0.954718 7:-0.99388 8:-0.995693 9:-0.986813 10:0.0255489 11:-0.514499 12:-0.469338 13:-0.219424 14:-1 15:-0.933333 16:-1 17:-0.792044 18:-0.974421 
10 0 0 0 0 0 0 1:-0.983451 2:-0.476358 3:-0.8571 4:-0.246457 5:-0.262036 6:-0.260533 7:-0.995716 8:-0.995693 9:-0.987912 10:-0.163553 11:-0.568661 12:-0.505768 13:-0.255396 14:-0.909091 15:-0.866667 16:-0.92 17:-0.833766 18:-0.999959 
10 0 0 0 0 0 0 1:-0.868698 2:-0.487297 3:-0.942761 4:-0.223483 5:-0.39481 6:0.0750475 7:-0.993268 8:-0.995693 9:-1 10:0.110397 11:-0.55688 12:-0.493625 13:-0.134532 14:-0.818182 15:-0.8 16:-1 17:-0.794249 18:-0.999964 
10 0 0 10 0 0 10 1:-0.823064 2:-0.506342 3:-0.933666 4:0.0328336 5:-0.31873 6:0.108659 7:-0.995716 8:-0.995693 9:-0.994505 10:0.214042 11:-0.534857 12:-0.474196 13:-0.148921 14:-0.818182 15:-0.866667 16:-1 17:-0.751082 18:-0.99998 
10 10 10 10 10 10 5.114512582952669 1:-0.888842 2:-0.545672 3:-0.847666 4:0.029519 5:0.0785341 6:0.198785 7:-0.994492 8:-0.994832 9:-0.998901 10:-0.493915 11:-0.490168 12:-0.43048 13:-0.269784 14:-0.272727 15:-0.266667 16:-0.2 17:-0.774715 18:-0.999976 
10 10 0 0 0 0 0 1:-0.925045 2:-0.499019 3:-0.908499 4:0.0309773 5:-0.0528636 6:0.319033 7:-0.993268 8:-0.993971 9:-0.994505 10:-0.0251709 11:-0.544077 12:-0.480267 13:-0.183453 14:-0.909091 15:-0.733333 16:-0.52 17:-0.83946 18:-0.999958 
10 10 0 3.078378146371578 10 10 10 1:-0.95327 2:-0.511612 3:-0.896593 4:0.126391 5:-0.0689545 6:-0.0291725 7:-0.993268 8:-0.990525 9:-0.994505 10:-0.0981319 11:-0.526595 12:-0.464481 13:-0.197842 14:0.545455 16:-0.04 17:-0.877917 18:-0.999954 
10 0 0 0 0 0 0 1:-0.982292 2:-0.475222 3:-0.869368 4:0.294158 5:-0.130278 6:-0.318879 7:-0.99694 8:-1 9:-0.994505 10:-0.275767 11:-0.574097 12:-0.51184 13:-0.241007 14:-0.909091 15:-1 16:-0.92 17:-0.838165 18:-0.999985 
10 0 0 0 0 0 0 1:-0.954291 2:-0.480939 3:-0.917992 4:0.0809462 5:-0.264978 6:-0.42844 7:-0.990208 8:-1 9:-0.987912 10:-0.0897941 11:-0.565205 12:-0.502125 13:-0.171942 14:-1 15:-1 16:-0.84 17:-0.861884 18:-0.999951 
10 0 0 0 0 0 0 1:-0.939976 2:-0.482366 3:-0.937987 4:0.451299 5:-0.350931 6:-0.354612 7:-0.985924 8:-1 9:-1 10:-0.0559808 11:-0.563388 12:-0.500911 13:-0.143165 14:-1 15:-1 16:-1 17:-0.867567 18:-0.999893 
10 0 0 0 0 0 0 1:-0.992908 2:-0.483298 3:-0.860578 4:0.0402432 5:0.193423 6:-0.117004 7:-0.993268 8:-0.995693 9:-0.986813 10:-0.191087 11:-0.560412 12:-0.498482 13:-0.252518 14:-0.909091 15:-1 16:-0.84 17:-0.858651 18:-0.999939 
10 0 0 0 0 0 0 1:-0.982221 2:-0.49713 3:-0.869305 4:-0.176086 5:-0.199394 6:0.732016 7:-0.99694 8:-0.993109 9:-0.998901 10:-0.162251 11:-0.545086 12:-0.48391 13:-0.238129 14:-0.909091 15:-0.8 16:-0.92 17:-0.865662 18:-0.999969 
10 0 0 0 10 0 0 1:-0.961235 2:-0.511302 3:-0.851192 4:-0.159991 5:-0.457474 6:0.0982709 7:-0.993268 8:-0.993971 9:-0.994505 10:-0.110208 11:-0.530329 12:-0.466909 13:-0.26259 14:-0.636364 15:-0.933333 16:-1 17:-0.832375 18:-0.999925 
10 0 0 0 0 0 0 1:-0.925197 2:-0.485387 3:-0.880791 4:-0.473738 5:-0.174131 6:0.470591 7:-0.990208 8:-0.993971 9:-0.989011 10:-0.0237848 11:-0.559781 12:-0.497268 13:0.128777 14:-0.727273 15:-0.8 16:-0.68 17:-0.794934 18:-0.999903 
10 10 0 0 0 10 0 1:-0.901147 2:-0.482914 3:-0.936567 4:0.0296708 5:0.00703154 6:0.519647 7:-0.977356 8:-0.990525 9:-0.987912 10:0.0226717 11:-0.566126 12:-0.503339 13:0.0453237 14:-0.454545 15:-0.533333 16:-0.76 17:-0.827034 18:-0.999536 
0 0.4650410076473622 0 0 0 0 0 1:-0.970465 2:-0.483875 3:-0.913543 4:0.147056 5:-0.168942 6:0.0709674 7:-0.99388 8:-0.996555 9:-0.994505 10:-0.133121 11:-0.562808 12:-0.500911 13:-0.17482 14:-0.545455 15:-0.866667 16:-0.92 17:-0.883836 18:-0.99996 
10 10 0 0 0 10 10 1:-0.944791 2:-0.489584 3:-0.874773 4:0.392048 5:-0.301511 6:0.174179 7:-0.991432 8:-0.993109 9:-0.992308 10:-0.0699052 11:-0.553525 12:-0.491196 13:-0.229496 14:-1 15:-0.666667 16:-0.84 17:-0.816255 18:-0.999945 
10 0 0 0 0 0 0 1:-0.961721 2:-0.484478 3:-0.90524 4:0.0787056 5:0.0636201 6:-0.728326 7:-0.988372 8:-0.997416 9:-0.98022 10:-0.110481 11:-0.561446 12:-0.498482 13:-0.192086 14:-0.909091 15:-0.866667 16:-0.76 17:-0.863082 18:-0.999839 
0 10 0 0 0 10 0 1:-0.987437 2:-0.481734 3:-0.913128 4:-0.300953 5:-0.0935218 6:-0.382554 7:-0.992656 8:-0.995693 9:-0.991209 10:-0.251846 11:-0.563174 12:-0.500911 13:-0.180576 14:-0.363636 15:-0.533333 16:-0.44 17:-0.903145 18:-0.999936 
10 0 0 0 0 0 0 1:-0.944692 2:-0.484227 3:-0.943822 4:0.175325 5:-0.0275554 6:0.343907 7:-0.993268 8:-0.997416 9:-0.998901 10:-0.0713123 11:-0.56108 12:-0.498482 13:-0.128777 14:-0.636364 15:-1 16:-0.84 17:-0.887411 18:-0.999964 
0 10 0 0 0 10 0 1:-0.951514 2:-0.482548 3:-0.981862 4:0.22389 5:-0.299343 6:-0.359754 7:-0.99388 8:-0.995693 9:-0.994505 10:-0.0898571 11:-0.563742 12:-0.500911 13:-0.0769784 14:-0.727273 15:-0.6 16:-0.92 17:-0.933661 18:-0.999948 
10 10 0 0 0 10 0 1:-0.97957 2:-0.468912 3:-0.933397 4:0.000108816 5:0.333069 6:0.0704781 7:-0.99694 8:-0.990525 9:-0.995604 10:-0.152548 11:-0.578688 12:-0.516697 13:-0.146043 14:0.0909091 15:-0.133333 16:-0.2 17:-0.901839 18:-0.99995 
3.74315119473505 10 0.2922961596979048 0 10 10 10 1:-0.944554 2:-0.48004 3:-0.942678 4:0.15589 5:-0.309889 6:-0.176697 7:-0.991432 8:-0.993971 9:-0.994505 10:-0.0760378 11:-0.56528 12:-0.502125 13:-0.134532 14:0.272727 15:0.0666667 16:-0.2 17:-0.883804 18:-0.999945 
0 10 0 0 10 10 0 1:-0.954102 2:-0.475189 3:-0.950661 4:-0.236862 5:-0.0655243 6:0.335521 7:-0.995716 8:-0.991387 9:-0.993407 10:-0.098993 11:-0.568737 12:-0.505768 13:-0.120144 14:0.272727 15:-0.133333 16:-0.12 17:-0.902599 18:-0.999951 
10 0 0 0 0 0 0 1:-0.980965 2:-0.478597 3:-0.883475 4:-0.27013 5:0.221165 6:-0.27866 7:-0.99694 8:-0.995693 9:-0.991209 10:-0.277489 11:-0.566542 12:-0.505768 13:-0.218705 14:-1 15:-0.8 16:-0.76 17:-0.858212 18:-0.999964 
10 10 0 0 0 10 0 1:-0.98226 2:-0.481322 3:-0.862181 4:-0.105068 5:0.170266 6:-0.443234 7:-0.99694 8:-0.993109 9:-0.987912 10:-0.27268 11:-0.56576 12:-0.504554 13:-0.246763 14:-0.636364 15:-0.8 16:-0.6 17:-0.839974 18:-0.999966 
10 0 0 0 0 0 0 1:-0.977255 2:-0.48864 3:-0.850413 4:-0.321365 5:-0.00197829 6:-0.086423 7:-0.99694 8:-0.990525 9:-0.992308 10:-0.279064 11:-0.559932 12:-0.497268 13:-0.265468 14:-0.818182 15:-0.8 16:-0.68 17:-0.829121 18:-0.999962 
0 10 0 0 0 0 0 1:-0.941124 2:-0.480793 3:-0.988717 4:0.225139 5:-0.172598 6:0.116683 7:-0.99694 8:-0.994832 9:-0.992308 10:-0.0614834 11:-0.564334 12:-0.500911 13:-0.0309352 14:-0.636364 15:-0.733333 16:-0.84 17:-0.930161 18:-0.999966 
10 0 0 0 0 0 0 1:-0.908026 2:-0.475957 3:-0.995533 4:-0.213344 5:-0.144421 6:0.0517166 7:-0.99694 8:-1 9:-0.987912 10:0.015783 11:-0.572722 12:-0.510625 13:-0.0453237 14:-0.818182 15:-1 16:-0.76 17:-0.891082 18:-0.999969 
10 0 0 0 0 0 0 1:-0.918653 2:-0.468976 3:-0.990125 4:-0.244984 5:0.092552 6:0.444821 7:-0.99694 8:-1 9:-0.992308 10:-0.00288777 11:-0.579685 12:-0.517911 13:-0.0352518 14:-0.818182 15:-1 16:-0.84 17:-0.887144 18:-0.999946 
10 0 0 0 0 0 0 1:-0.903879 2:-0.46658 3:-0.98157 4:0.0154008 5:0.0963165 6:0.0909174 7:-0.988984 8:-1 9:-0.994505 10:0.0271871 11:-0.582107 12:-0.52034 13:-0.0165468 14:-0.818182 15:-1 16:-1 17:-0.857763 18:-0.99994 
10 0 0 0 0 0 0 1:-0.915005 2:-0.470003 3:-0.986565 4:0.286856 5:-0.0979901 6:-0.0760455 7:-0.990208 8:-0.995693 9:-0.982418 10:-0.00334982 11:-0.576405 12:-0.51184 13:-0.0669065 14:-0.909091 15:-0.866667 16:-1 17:-0.887764 18:-0.999928 
10 0 0 0 0 0 0 1:-0.889403 2:-0.484335 3:-0.986527 4:0.204983 5:-0.250517 6:-0.126109 7:-0.992656 8:-0.995693 9:-0.994505 10:0.0538806 11:-0.562278 12:-0.502125 13:-0.071223 14:-1 15:-1 16:-1 17:-0.866593 18:-0.999958 
0 10 0 0 0 0 0 1:-0.915512 2:-0.48331 3:-0.99537 4:0.357086 5:0.13878 6:-0.164624 7:-0.99694 8:-0.998277 9:-0.994505 10:-0.00334982 11:-0.563502 12:-0.500911 13:-0.042446 14:-0.454545 15:-0.933333 16:-0.92 17:-0.907994 18:-0.99997 
0 10 0 0 0 10 0 1:-0.956178 2:-0.480073 3:-0.946637 4:-0.241745 5:-0.0619567 6:-0.523721 7:-0.982252 8:-0.990525 9:-0.851648 10:-0.315062 11:-0.567677 12:-0.504554 13:-0.0582734 14:-0.909091 15:-0.666667 16:-0.68 17:-0.91767 18:-0.996645 
10 0 0 0 0 0 0 1:-0.894813 2:-0.497918 3:-0.939972 4:0.529532 5:-0.0813076 6:0.487054 7:-0.988372 8:-0.993109 9:-0.983516 10:0.0551618 11:-0.545124 12:-0.48391 13:0.0388489 14:-0.909091 15:-0.866667 16:-0.84 17:-0.833199 18:-0.999919 
10 10 0 0 0 10 0 1:-0.88413 2:-0.498286 3:-0.965906 4:0.510959 5:-0.103171 6:-0.289981 7:-0.990208 8:-0.993971 9:-0.986813 10:0.0673429 11:-0.546209 12:-0.485124 13:-0.0942446 14:-0.818182 15:-0.733333 16:-0.68 17:-0.853086 18:-0.999916 
10 0 0 0 0 0 0 1:-0.852367 2:-0.505653 3:-0.989813 4:0.225674 5:-0.0489402 6:-0.222496 7:-0.992656 8:-1 9:-0.994505 10:0.147025 11:-0.536497 12:-0.47541 13:-0.0640288 14:-0.909091 15:-1 16:-0.92 17:-0.844662 18:-0.999969 
0 10 0 0 0 10 0 1:-0.960097 2:-0.461905 3:-0.971963 4:0.116343 5:-0.149221 6:0.0367291 7:-0.990208 8:-0.995693 9:-0.994505 10:-0.113148 11:-0.587606 12:-0.527626 13:-0.00791366 14:-0.181818 15:-0.2 16:0.12 17:-0.920784 18:-0.999925 
10 10 0 0 0 10 0 1:-0.928068 2:-0.478907 3:-0.987811 4:-0.0493657 5:-0.206554 6:0.395529 7:-0.993268 8:-0.993109 9:-0.987912 10:-0.0399773 11:-0.566504 12:-0.503339 13:-0.0510791 14:-0.181818 16:-0.12 17:-0.921384 18:-0.99992 
0 10 0 0 10 0 0 1:-0.919358 2:-0.482501 3:-0.989416 4:0.0471574 5:-0.0541904 6:0.575232 7:-0.995716 8:-0.995693 9:-0.985714 10:-0.01551 11:-0.563388 12:-0.499696 13:-0.042446 14:0.454545 15:-0.533333 16:-0.28 17:-0.912885 18:-0.999948 
10 0 0 0 0 0 0 1:-0.884634 2:-0.517281 3:-0.975336 4:0.2068 5:-0.201101 6:-0.399544 7:-0.99694 8:-0.990525 9:-0.987912 10:0.0734545 11:-0.521966 12:-0.460838 13:-0.0856115 14:-0.818182 15:-0.866667 16:-0.84 17:-0.879608 18:-0.999968 
10 0 0 0 0 0 0 1:-0.890288 2:-0.512342 3:-0.983602 4:-0.00894548 5:-0.526261 6:-0.189403 7:-0.99694 8:-0.990525 9:-0.994505 10:0.0502683 11:-0.524337 12:-0.464481 13:-0.0755396 14:-0.909091 15:-0.866667 16:-1 17:-0.897719 18:-0.999958 
10 10 0 0 0 0 0 1:-0.914754 2:-0.51307 3:-0.991225 4:0.527463 5:-0.311178 6:-0.208701 7:-0.988984 8:-0.990525 9:-0.982418 10:0.0011236 11:-0.52662 12:-0.465695 13:-0.0438849 14:-0.636364 15:-0.8 16:-0.52 17:-0.934399 18:-0.999746 
10 0 0 0 0 0 10 1:-0.850669 2:-0.503259 3:-0.904367 4:0.314202 5:-0.368094 6:-0.311021 7:-0.99694 8:-0.993971 9:-0.994505 10:0.151792 11:-0.53965 12:-0.477839 13:-0.190647 14:-0.909091 15:-1 16:-1 17:-0.747272 18:-0.999968 
0 10 10 10 8.219582008396767 10 0 1:-0.886594 2:-0.526209 3:-0.774599 4:0.00454803 5:0.0979145 6:0.0388148 7:-0.993268 8:-0.995693 9:-0.989011 10:-0.500047 11:-0.512216 12:-0.452338 13:0.278417 14:-0.909091 15:-0.466667 16:-0.68 17:-0.677293 18:-0.999961 
0 0 3.745485068823656 0 0 0 0 1:-0.914258 2:-0.522634 3:-0.783943 4:-0.03157 5:-0.120449 6:-0.0942268 7:-0.99694 8:-0.993971 9:-0.994505 10:-0.438217 11:-0.517362 12:-0.454766 13:0.266906 14:-1 15:-1 16:-0.84 17:-0.710163 18:-0.999972 
10 0 0 0 0 0 0 1:-0.929059 2:-0.482364 3:-0.963066 4:0.194083 5:0.14921 6:0.260604 7:-0.995716 8:-1 9:-0.986813 10:-0.0360709 11:-0.565053 12:-0.503339 13:0.00647482 14:-1 15:-0.933333 16:-0.84 17:-0.888546 18:-0.999954 
10 10 0 0 0 0 0 1:-0.872253 2:-0.501573 3:-0.942048 4:0.104142 5:0.0535637 6:0.262781 7:-0.99694 8:-0.995693 9:-0.987912 10:0.0980058 11:-0.540243 12:-0.479053 13:0.0359712 14:-0.272727 15:-0.933333 16:-0.92 17:-0.817861 18:-0.999962 
10 0 0 0 0 0 0 1:-0.940469 2:-0.513714 3:-0.914098 4:0.319872 5:-0.647662 6:-0.583226 7:-0.992656 8:-0.995693 9:-0.987912 10:-0.0593832 11:-0.524287 12:-0.465695 13:-0.177698 14:-0.909091 15:-0.933333 16:-0.76 17:-0.877821 18:-0.99992 
10 0 0 0 0 0 0 1:-0.908513 2:-0.480842 3:-0.966252 4:-0.553716 5:-0.336184 6:0.326406 7:-0.99388 8:-0.995693 9:-1 10:0.0118346 11:-0.563653 12:-0.504554 13:-0.0985611 14:-0.727273 15:-1 16:-1 17:-0.865223 18:-0.99995 
10 0 0 0 0 0 0 1:-0.941695 2:-0.491339 3:-0.90172 4:0.29358 5:-0.221816 6:-0.341576 7:-0.99694 8:-0.990525 9:-0.998901 10:-0.0616934 11:-0.55017 12:-0.488767 13:-0.192086 14:-0.727273 15:-0.933333 16:-1 17:-0.844897 18:-0.999979 
10 10 0 0 0 0 0 1:-0.93409 2:-0.487796 3:-0.954844 4:-0.12811 5:-0.101599 6:-0.116026 7:-0.991432 8:-0.995693 9:-0.992308 10:-0.0523895 11:-0.556388 12:-0.494839 13:-0.118705 14:-0.636364 15:-0.666667 16:-0.92 17:-0.892099 18:-0.999921 
0 10 0 0 0 0 0 1:-0.96669 2:-0.475687 3:-0.937561 4:-0.285505 5:-0.127904 6:-0.0911341 7:-0.993268 8:-0.995693 9:-0.989011 10:-0.310189 11:-0.571802 12:-0.508197 13:-0.140288 14:-0.454545 15:-0.666667 16:-0.76 17:-0.896456 18:-0.999916 
0 10 0 0 0 10 0 1:-0.947176 2:-0.472044 3:-0.972749 4:-0.168001 5:0.0820171 6:-0.732255 7:-0.960832 8:-0.990525 9:-0.972527 10:-0.308257 11:-0.579143 12:-0.514268 13:-0.0755396 14:-0.454545 15:-0.6 16:-0.68 17:-0.939451 18:-0.998717 
10 0 0 0 0 0 0 1:-0.960625 2:-0.471484 3:-0.964112 4:-0.0767255 5:0.35568 6:0.163804 7:-0.993268 8:-0.995693 9:-0.994505 10:-0.114576 11:-0.575548 12:-0.510625 13:-0.101439 14:-1 15:-0.866667 16:-0.76 17:-0.918515 18:-0.999941 
10 0 0 0 0 0 0 1:-0.95565 2:-0.467208 3:-0.93239 4:-0.0526693 5:0.636274 6:0.270959 7:-0.99694 8:-0.997416 9:-0.998901 10:-0.0985309 11:-0.580795 12:-0.517911 13:-0.148921 14:-0.909091 15:-0.933333 16:-1 17:-0.870104 18:-0.999983 
10 0 0 0 0 0 0 1:-0.95565 2:-0.467208 3:-0.93239 4:-0.0526693 5:0.636274 6:0.270959 7:-0.99694 8:-0.997416 9:-0.998901 10:-0.0985309 11:-0.580795 12:-0.517911 13:-0.148921 14:-0.909091 15:-0.933333 16:-1 17:-0.870104 18:-0.999983 
10 10 10 0 10 10 10 1:-0.98009 2:-0.498264 3:-0.825673 4:0.719661 5:-0.779154 6:-0.905212 7:-0.976132 8:-0.989664 9:-0.962637 10:-0.173949 11:-0.546512 12:-0.485124 13:-0.310072 14:-0.545455 15:-0.733333 16:-0.76 17:-0.823844 18:-0.999464 
10 0 0 0 0 0 0 1:-0.993689 2:-0.488772 3:-0.896055 4:-0.197654 5:-0.0319065 6:0.139506 7:-0.992656 8:-1 9:-0.987912 10:-0.1855 11:-0.557637 12:-0.496053 13:-0.200719 14:-1 15:-1 16:-0.92 17:-0.895214 18:-0.999951 
10 0 0 0 0 0 0 1:-0.906128 2:-0.510753 3:-0.881028 4:-0.0598255 5:-0.13509 6:0.171202 7:-0.993268 8:-1 9:-0.986813 10:0.0114356 11:-0.531502 12:-0.469338 13:-0.219424 14:-0.818182 15:-0.933333 16:-0.92 17:-0.800982 18:-0.999952 
10 0 0 0 0 0 0 1:-0.983276 2:-0.476009 3:-0.858411 4:-0.296538 5:-0.087681 6:-0.322187 7:-1 8:-0.996555 9:-0.987912 10:-0.160088 11:-0.570982 12:-0.509411 13:-0.255396 14:-1 15:-0.933333 16:-0.76 17:-0.83003 18:-0.999962 
10 0 0 0 0 0 10 1:-0.869726 2:-0.487601 3:-0.938915 4:0.457918 5:-0.607614 6:-0.543358 7:-0.993268 8:-0.995693 9:-0.982418 10:0.106659 11:-0.557334 12:-0.498482 13:-0.134532 14:-0.818182 15:-0.866667 16:-1 17:-0.790546 18:-0.99994 
10 -0 6.979972201500777 10 0 0 10 1:-0.823888 2:-0.502915 3:-0.940353 4:0.656432 5:-0.918067 6:-0.739808 7:-0.988984 8:-0.989664 9:-0.975824 10:0.210535 11:-0.538944 12:-0.479053 13:-0.131655 14:-0.818182 15:-1 16:-0.92 17:-0.755931 18:-0.99985 
10 10 10 10 10 10 10 1:-0.887038 2:-0.541269 3:-0.846311 4:0.128941 5:-0.150316 6:0.0190506 7:-0.99694 8:-0.994832 9:-0.998901 10:-0.49801 11:-0.491038 12:-0.43048 13:-0.269784 15:-0.2 16:0.04 17:-0.771194 18:-0.999979 
10 10 0 5.691839520582113 0 10 10 1:-0.924756 2:-0.50036 3:-0.906739 4:-0.0671747 5:0.0845612 6:-0.160541 7:-0.99694 8:-0.997416 9:-0.989011 10:-0.0206765 11:-0.542539 12:-0.480267 13:-0.183453 14:-0.454545 15:-0.333333 16:0.2 17:-0.835618 18:-0.99996 
10 10 0 10 10 10 10 1:-0.952025 2:-0.512733 3:-0.894835 4:0.0116502 5:0.0445577 6:0.106244 7:-0.99694 8:-0.993971 9:-0.994505 10:-0.0949816 11:-0.52652 12:-0.464481 13:-0.199281 14:0.0909091 15:0.333333 16:0.12 17:-0.87537 18:-0.999959 
10 0 0 0 0 0 0 1:-0.980382 2:-0.47614 3:-0.871012 4:-0.421783 5:0.458793 6:-0.740114 7:-0.993268 8:-0.996555 9:-0.989011 10:-0.271797 11:-0.572218 12:-0.51184 13:-0.236691 14:-0.636364 15:-1 16:-0.84 17:-0.843784 18:-0.999926 
10 0 0 0 0 0 0 1:-0.951988 2:-0.481602 3:-0.91423 4:0.0562702 5:-0.0119627 6:-0.234563 7:-0.993268 8:-1 9:-0.994505 10:-0.0874419 11:-0.565205 12:-0.502125 13:-0.177698 14:-1 15:-1 16:-0.92 17:-0.857998 18:-0.999968 
10 0 0 0 0 0 0 1:-0.936486 2:-0.483382 3:-0.935584 4:0.0136132 5:-0.0284775 6:0.220082 7:-0.99694 8:-1 9:-1 10:-0.047139 11:-0.562985 12:-0.500911 13:-0.143165 14:-1 15:-1 16:-1 17:-0.864046 18:-0.999976 
10 0 0 0 10 0 0 1:-0.996746 2:-0.485431 3:-0.861795 4:-0.216692 5:-0.599066 6:0.120812 7:-0.99694 8:-0.993109 9:-0.989011 10:-0.203289 11:-0.558242 12:-0.498482 13:-0.246763 14:-0.727273 15:-0.666667 16:-0.52 17:-0.868306 18:-0.99994 
10 0 0 0 10 0 0 1:-0.979858 2:-0.498095 3:-0.869031 4:-0.381331 5:-0.385836 6:0.568474 7:-0.99694 8:-0.995693 9:-0.998901 10:-0.153997 11:-0.544456 12:-0.482696 13:-0.238129 14:-0.727273 15:-0.8 16:-1 17:-0.862066 18:-0.999978 
10 0 0 0 0 0 0 1:-0.965218 2:-0.510461 3:-0.85924 4:-0.0978431 5:-0.419104 6:0.322444 7:-0.99694 8:-0.993971 9:-0.986813 10:-0.121549 11:-0.529913 12:-0.466909 13:-0.255396 14:-0.909091 15:-0.866667 16:-0.92 17:-0.843891 18:-0.999945 
10 10 0 0 0 10 0 1:-0.89262 2:-0.482862 3:-0.93833 4:0.226892 5:0.340356 6:-0.242615 7:-0.99388 8:-0.995693 9:-0.994505 10:0.047307 11:-0.565924 12:-0.503339 13:0.0496403 14:-0.727273 15:-0.8 16:-0.92 17:-0.814254 18:-0.999966 
10 0 0 0 0 0 0 1:-0.96926 2:-0.483795 3:-0.914936 4:-0.0369555 5:-0.252156 6:-0.14841 7:-0.991432 8:-0.997416 9:-0.998901 10:-0.119848 11:-0.562619 12:-0.499696 13:-0.17482 14:-0.636364 15:-0.8 16:-0.84 17:-0.876965 18:-0.999951 
10 10 0 0 0 0 0 1:-0.944588 2:-0.486852 3:-0.87638 4:-0.0351376 5:-0.121926 6:-0.290399 7:-0.995716 8:-0.993109 9:-0.987912 10:-0.0708083 11:-0.556754 12:-0.496053 13:-0.228058 14:-0.545455 15:-0.866667 16:-0.68 17:-0.816127 18:-0.999945 
10 10 0 0 0 10 0 1:-0.953421 2:-0.485397 3:-0.894846 4:0.428656 5:-0.33317 6:-0.662805 7:-0.981028 8:-0.995693 9:-0.987912 10:-0.0931334 11:-0.560841 12:-0.498482 13:-0.205036 14:-0.545455 15:-0.666667 16:-0.6 17:-0.84235 18:-0.999772 
10 0 0 0 0 0 0 1:-0.940417 2:-0.48471 3:-0.949314 4:-0.225365 5:-0.158411 6:0.405955 7:-0.99694 8:-0.997416 9:-0.986813 10:-0.0587111 11:-0.561597 12:-0.498482 13:-0.121583 14:-0.818182 15:-1 16:-0.84 17:-0.88556 18:-0.999978 
10 10 0 0 8.843017092308724 10 0 1:-0.973774 2:-0.468005 3:-0.935051 4:0.259214 5:0.248748 6:-0.011861 7:-0.991432 8:-0.991387 9:-0.994505 10:-0.156055 11:-0.579672 12:-0.517911 13:-0.142446 15:0.133333 16:-0.36 17:-0.904997 18:-0.999885 
10 10 4.737777002354258 0 0 10 10 1:-0.95029 2:-0.480192 3:-0.941369 4:0.27651 5:0.0174608 6:-0.0622776 7:-0.995716 8:-0.993971 9:-0.995604 10:-0.089227 11:-0.566895 12:-0.504554 13:-0.134532 14:-0.363636 15:0.133333 16:0.12 17:-0.888771 18:-0.999945 
10 10 0 0 0 0 0 1:-0.956743 2:-0.476453 3:-0.949689 4:0.0307699 5:0.0679043 6:0.0341028 7:-0.990208 8:-0.992248 9:-0.995604 10:-0.110208 11:-0.569216 12:-0.506982 13:-0.120144 14:-0.181818 15:-0.533333 16:-0.12 17:-0.908347 18:-0.999937 
10 0 0 0 0 0 0 1:-0.980962 2:-0.478982 3:-0.887222 4:0.0224577 5:0.484883 6:-0.192557 7:-0.994492 8:-0.996555 9:-0.984615 10:-0.277363 11:-0.568409 12:-0.504554 13:-0.21295 14:-0.909091 15:-0.933333 16:-0.68 17:-0.859936 18:-0.999939 
10 0 0 0 0 0 0 1:-0.981211 2:-0.485218 3:-0.861389 4:-0.507838 5:0.535244 6:-0.385079 7:-0.99694 8:-0.991387 9:-0.992308 10:-0.269718 11:-0.563124 12:-0.499696 13:-0.246763 14:-0.636364 15:-1 16:-0.52 17:-0.842789 18:-0.999961 
10 10 0 0 4.322381884235805 10 0 1:-0.980764 2:-0.486511 3:-0.853341 4:0.11206 5:-0.097058 6:-0.184168 7:-0.99694 8:-0.994832 9:-0.994505 10:-0.27102 11:-0.559314 12:-0.496053 13:-0.26259 14:-0.636364 15:-0.8 16:-0.84 17:-0.834868 18:-0.999976 
0 10 0 0 0 0 0 1:-0.961026 2:-0.478424 3:-0.969423 4:-0.209241 5:0.209853 6:-0.0680674 7:-0.993268 8:-0.995693 9:-0.986813 10:-0.105546 11:-0.571259 12:-0.509411 13:-0.0899281 14:-0.727273 15:-0.6 16:-0.76 17:-0.925194 18:-0.99995 
10 0 0 0 0 0 0 1:-0.910394 2:-0.475914 3:-0.995283 4:0.322704 5:-0.142443 6:-0.345689 7:-0.995716 8:-0.997416 9:-0.994505 10:0.0196474 11:-0.570553 12:-0.508197 13:-0.0496403 14:-1 15:-1 16:-0.76 17:-0.890826 18:-0.999949 
10 0 0 0 0 0 0 1:-0.900635 2:-0.467285 3:-0.981806 4:0.0749681 5:-0.317631 6:-0.420701 7:-0.99694 8:-0.999139 9:-0.994505 10:0.0349578 11:-0.582157 12:-0.52034 13:-0.0165468 14:-1 15:-1 16:-0.84 17:-0.855879 18:-0.999973 
10 0 0 0 0 0 0 1:-0.897941 2:-0.483113 3:-0.987083 4:0.254249 5:0.205297 6:-0.231272 7:-1 8:-1 9:-0.99011 10:0.0395993 11:-0.562934 12:-0.502125 13:-0.0654676 14:-1 15:-0.933333 16:-0.84 17:-0.876365 18:-0.999978 
10 0 0 0 0 0 0 1:-0.9207 2:-0.481528 3:-0.993395 4:0.426717 5:-0.17066 6:-0.441736 7:-0.99694 8:-0.993971 9:-0.994505 10:-0.0131788 11:-0.564549 12:-0.502125 13:-0.0395683 14:-0.909091 15:-0.8 16:-0.6 17:-0.909728 18:-0.999979 
0 0 0 0 10 0 0 1:-0.948797 2:-0.479067 3:-0.955759 4:-0.459395 5:-0.535482 6:0.601125 7:-0.983476 8:-0.993109 9:-0.962637 10:-0.35276 11:-0.566945 12:-0.504554 13:-0.0352518 14:-0.727273 15:-0.733333 16:-0.76 17:-0.92756 18:-0.999081 
0 0 0 0 10 0 0 1:-0.956986 2:-0.480056 3:-0.940664 4:-0.167633 5:-0.24758 6:0.844066 7:-0.977356 8:-0.993971 9:-0.968132 10:-0.319493 11:-0.567513 12:-0.503947 13:0.023741 14:-0.818182 15:-0.733333 16:-0.6 17:-0.909086 18:-0.999511 
10 10 0 0 0 10 0 1:-0.881352 2:-0.503211 3:-0.932944 4:0.381948 5:0.318257 6:-0.125665 7:-0.995716 8:-0.995693 9:-0.992308 10:0.0820863 11:-0.538641 12:-0.477839 13:0.0510791 14:-0.818182 15:-0.733333 16:-0.84 17:-0.816705 18:-0.999952 
10 0 0 0 0 0 0 1:-0.892449 2:-0.49548 3:-0.968122 4:-0.222692 5:-0.338718 6:0.247978 7:-1 8:-0.995693 9:-0.99011 10:0.0521795 11:-0.549274 12:-0.487553 13:-0.0985611 14:-1 15:-0.933333 16:-0.68 17:-0.85848 18:-0.999973 
10 0 0 0 0 0 0 1:-0.854009 2:-0.505916 3:-0.986714 4:-0.0339943 5:0.178526 6:0.25892 7:-0.999388 8:-1 9:-0.987912 10:0.151939 11:-0.536131 12:-0.47541 13:-0.0683453 14:-1 15:-1 16:-0.84 17:-0.839449 18:-0.999958 
0 10 0 0 10 10 0 1:-0.958808 2:-0.462238 3:-0.972955 4:0.143452 5:-0.0777549 6:0.496332 7:-0.990208 8:-0.995693 9:-0.987912 10:-0.11214 11:-0.588363 12:-0.527626 13:-0.0136691 15:0.0666667 16:-0.12 17:-0.92194 18:-0.999916 
10 10 0 0 0 10 0 1:-0.930149 2:-0.477796 3:-0.987114 4:0.13636 5:0.090228 6:0.496462 7:-0.993268 8:-0.991387 9:-0.992308 10:-0.0398513 11:-0.566214 12:-0.503339 13:-0.0568345 14:0.0909091 15:-0.2 16:0.28 17:-0.919564 18:-0.999943 
10 10 0 0 0 0 0 1:-0.91244 2:-0.483258 3:-0.985312 4:-0.19786 5:-0.136509 6:0.326315 7:-0.991432 8:-0.996555 9:-0.986813 10:0.000745569 11:-0.563212 12:-0.499696 13:-0.042446 14:0.181818 15:-0.466667 16:0.04 17:-0.903916 18:-0.99993 
10 0 0 0 0 0 0 1:-0.883896 2:-0.514741 3:-0.974072 4:0.233596 5:-0.342076 6:-0.254469 7:-0.993268 8:-0.995693 9:-0.994505 10:0.0705772 11:-0.523732 12:-0.460838 13:-0.0913669 14:-0.909091 15:-0.866667 16:-0.84 17:-0.877093 18:-0.999963 
10 0 0 0 0 0 0 1:-0.89531 2:-0.51562 3:-0.982501 4:-0.407026 5:-0.31456 6:0.392734 7:-0.992656 8:-0.990525 9:-0.991209 10:0.0380451 11:-0.523631 12:-0.464481 13:-0.0755396 14:-0.636364 15:-0.866667 16:-0.84 17:-0.903948 18:-0.999956 
10 0 0 0 0 0 0 1:-0.907813 2:-0.515946 3:-0.992768 4:-0.344727 5:0.478157 6:0.0460244 7:-0.990208 8:-0.995693 9:-0.992308 10:0.0182402 11:-0.526646 12:-0.465695 13:-0.0539568 14:-0.636364 15:-1 16:-0.68 17:-0.92482 18:-0.999944 
10 0 0 0 0 0 10 1:-0.850792 2:-0.502149 3:-0.903663 4:0.312309 5:-0.130558 6:-0.0511345 7:-0.99694 8:-0.989664 9:-0.994505 10:0.150469 11:-0.539284 12:-0.477839 13:-0.190647 14:-1 15:-0.933333 16:-0.92 17:-0.749306 18:-0.999957 
0 10 0 8.576783645863872 0 10 0 1:-0.891876 2:-0.52506 3:-0.770156 4:-0.385726 5:0.588193 6:0.0881985 7:-0.99388 8:-0.993109 9:-0.991209 10:-0.480431 11:-0.516076 12:-0.457195 13:0.285612 14:-0.545455 15:-0.733333 16:-0.84 17:-0.676598 18:-0.99995 
10 0 0 0 0 0 0 1:-0.877277 2:-0.503605 3:-0.935485 4:0.185673 5:-0.237956 6:-0.24846 7:-0.993268 8:-0.999139 9:-0.989011 10:0.088786 11:-0.538073 12:-0.47541 13:0.0496403 14:-0.636364 15:-0.866667 16:-0.84 17:-0.816148 18:-0.999972 
10 10 0 0 0 10 0 1:-0.942331 2:-0.512597 3:-0.919425 4:0.446662 5:-0.553562 6:-0.652839 7:-0.988984 8:-0.993971 9:-0.982418 10:-0.0605383 11:-0.527327 12:-0.466909 13:-0.171942 14:-0.909091 15:-0.6 16:-0.84 17:-0.882231 18:-0.999888 
10 0 0 0 0 0 0 1:-0.908823 2:-0.481478 3:-0.966474 4:0.0333534 5:0.195962 6:0.314016 7:-0.995716 8:-0.995693 9:-0.995604 10:0.01614 11:-0.564889 12:-0.502125 13:-0.0971223 14:-0.818182 15:-0.933333 16:-0.92 17:-0.861937 18:-0.999984 
10 10 0 0 0 0 0 1:-0.941631 2:-0.495201 3:-0.902299 4:0.136483 5:-0.198934 6:-0.582388 7:-0.992656 8:-0.993971 9:-0.998901 10:-0.0583751 11:-0.547849 12:-0.484517 13:-0.192086 14:-0.727273 15:-0.8 16:-0.84 17:-0.845251 18:-0.999965 
10 0 0 0 0 10 0 1:-0.918668 2:-0.288112 3:-0.939685 4:-0.94846 5:0.969722 6:-0.958122 7:-0.992656 8:-0.995693 9:-0.996703 10:-0.0524735 11:-0.538401 12:-0.494839 13:-0.118705 14:-0.909091 15:-0.733333 16:-0.84 17:-0.887465 18:-0.972981 
10 0 0 0 0 0 0 1:-0.898721 2:-0.487633 3:-0.994928 4:0.130852 5:0.021726 6:-0.079724 7:-0.995716 8:-0.993971 9:-1 10:0.0413845 11:-0.557561 12:-0.498482 13:-0.0553957 14:-0.727273 15:-1 16:-0.92 17:-0.886705 18:-0.999971 
0 10 0 0 0 0 0 1:-0.99043 2:-0.470504 3:-0.966406 4:0.289074 5:-0.474974 6:-0.696703 7:-0.991432 8:-0.991387 9:-0.956044 10:-0.233931 11:-0.577831 12:-0.513054 13:-0.0913669 14:-0.363636 15:-0.8 16:-0.68 17:-0.968372 18:-0.999703 
10 0 0 0 0 0 0 1:-0.955558 2:-0.464485 3:-0.932022 4:0.365222 5:-0.204627 6:-0.552217 7:-0.99694 8:-0.995693 9:-0.998901 10:-0.099623 11:-0.582662 12:-0.517911 13:-0.147482 14:-1 15:-0.733333 16:-0.84 17:-0.869494 18:-0.999974 
10 0 0 0 0 3.557148815287825 0 1:-0.955558 2:-0.464485 3:-0.932022 4:0.365222 5:-0.204627 6:-0.552217 7:-0.99694 8:-0.995693 9:-0.998901 10:-0.099623 11:-0.582662 12:-0.517911 13:-0.147482 14:-1 15:-0.733333 16:-0.84 17:-0.869494 18:-0.999974 
10 10 0 0 10 10 0 1:-0.968445 2:-0.49682 3:-0.838701 4:0.416776 5:-0.122897 6:0.0167045 7:-0.985924 8:-0.989664 9:-0.989011 10:-0.120457 11:-0.544304 12:-0.48391 13:-0.279856 14:-0.727273 15:-0.8 16:-0.92 17:-0.811182 18:-0.999439 
10 0 0 0 0 0 0 1:-0.991558 2:-0.487762 3:-0.894799 4:-0.0953466 5:-0.287319 6:0.161797 7:-1 8:-1 9:-1 10:-0.178402 11:-0.557334 12:-0.496053 13:-0.200719 14:-1 15:-1 16:-0.92 17:-0.891382 18:-0.999984 
10 0 0 0 0 0 8.186883799998718 1:-0.909342 2:-0.50927 3:-0.880509 4:0.222122 5:-0.117544 6:0.251782 7:-0.990208 8:-0.995693 9:-0.992308 10:0.01572 11:-0.532057 12:-0.469338 13:-0.219424 14:-0.818182 15:-1 16:-1 17:-0.797749 18:-0.999941 
10 0 0 0 0 0 0 1:-0.984515 2:-0.477219 3:-0.858806 4:-0.0817144 5:-0.229366 6:-0.155413 7:-0.995104 8:-0.997416 9:-0.994505 10:-0.164897 11:-0.570931 12:-0.509411 13:-0.252518 14:-0.818182 15:-1 16:-0.52 17:-0.83428 18:-0.999969 
10 0 0 0 0 0 0 1:-0.870627 2:-0.490913 3:-0.939277 4:0.0747798 5:-0.411537 6:-0.338047 7:-0.993268 8:-0.993109 9:-0.982418 10:0.106218 11:-0.555165 12:-0.493625 13:-0.134532 14:-0.909091 15:-0.933333 16:-0.92 17:-0.792826 18:-0.999945 
10 0 10 10 0 0 10 1:-0.8293 2:-0.499573 3:-0.943783 4:0.561207 5:-0.917444 6:-0.424703 7:-0.995104 8:-0.993971 9:-0.987912 10:0.204066 11:-0.542614 12:-0.485124 13:-0.131655 14:-0.727273 15:-1 16:-0.84 17:-0.759913 18:-0.999943 
10 10 10 10 10 10 0 1:-0.886855 2:-0.543434 3:-0.847225 4:0.0371116 5:0.0940198 6:0.0892988 7:-0.997552 8:-0.995693 9:-0.998901 10:-0.500782 11:-0.490925 12:-0.43048 13:-0.269784 14:-0.272727 15:-0.2 16:-0.36 17:-0.771194 18:-0.999983 
10 10 0 0 0 0 0 1:-0.925332 2:-0.499456 3:-0.910306 4:-0.0330096 5:-0.0611054 6:0.417218 7:-0.993268 8:-0.993971 9:-1 10:-0.0240788 11:-0.54269 12:-0.479053 13:-0.179137 14:-0.272727 15:-0.866667 16:-0.52 17:-0.841365 18:-0.999967 
10 10 0 0 0 10 10 1:-0.951773 2:-0.512861 3:-0.897016 4:-0.124145 5:0.121055 6:-0.14502 7:-0.995716 8:-0.990525 9:-0.996703 10:-0.0921043 11:-0.528185 12:-0.468124 13:-0.196403 14:-0.0909091 15:0.0666667 16:-0.04 17:-0.875466 18:-0.999949 
10 0 0 0 0 0 0 1:-0.950779 2:-0.481842 3:-0.912512 4:-0.170387 5:-0.0786249 6:-0.618993 7:-0.99694 8:-1 9:-1 10:-0.0818133 11:-0.564902 12:-0.502125 13:-0.177698 14:-0.909091 15:-1 16:-0.92 17:-0.854531 18:-0.999954 
10 0 0 0 0 0 0 1:-0.935017 2:-0.483382 3:-0.934437 4:0.0136132 5:-0.0284775 6:-0.213567 7:-0.993268 8:-1 9:-0.992308 10:-0.0427916 11:-0.562985 12:-0.500911 13:-0.143165 14:-0.909091 15:-1 16:-1 17:-0.858608 18:-0.999938 
10 10 0 0 0 0 0 1:-0.998402 2:-0.485128 3:-0.85915 4:-0.219383 5:-0.0106903 6:-0.0616782 7:-1 8:-0.993971 9:-0.987912 10:-0.201357 11:-0.558482 12:-0.497268 13:-0.253237 14:-0.909091 15:-0.6 16:-0.6 17:-0.864474 18:-0.999967 
10 10 0 0 0 0 0 1:-0.976519 2:-0.496402 3:-0.869593 4:-0.260215 5:-0.0759351 6:0.123962 7:-0.99694 8:-0.993971 9:-1 10:-0.147907 11:-0.54525 12:-0.48391 13:-0.238129 14:-0.636364 15:-0.733333 16:-1 17:-0.85833 18:-0.999972 
10 0 0 0 10 0 0 1:-0.96762 2:-0.508434 3:-0.860769 4:0.357998 5:-0.253217 6:0.172052 7:-0.99694 8:-0.993971 9:-0.996703 10:-0.121633 11:-0.531212 12:-0.466909 13:-0.255396 14:-0.818182 15:-0.866667 16:-1 17:-0.845914 18:-0.999982 
10 10 0 0 0 0 0 1:-0.895467 2:-0.482857 3:-0.940226 4:0.151636 5:-0.140224 6:0.175879 7:-0.994492 8:-0.993971 9:-0.991209 10:0.0439047 11:-0.566327 12:-0.504554 13:0.0438849 14:-0.636364 15:-0.733333 16:-0.92 17:-0.816983 18:-0.999966 
10 0 0 0 0 0 0 1:-0.943806 2:-0.491091 3:-0.87569 4:-0.436387 5:0.170738 6:-0.73776 7:-0.988984 8:-0.995693 9:-0.987912 10:-0.0721104 11:-0.555669 12:-0.496053 13:-0.225899 14:-0.818182 15:-0.733333 16:-0.84 17:-0.81815 18:-0.999889 
10 0 0 0 0 0 0 1:-0.967454 2:-0.483493 3:-0.899511 4:-0.218808 5:-0.0384929 6:-0.155083 7:-0.993268 8:-0.995693 9:-0.994505 10:-0.122137 11:-0.562291 12:-0.499696 13:-0.197842 14:-0.818182 15:-0.866667 16:-0.84 17:-0.863157 18:-0.999957 
10 0 0 0 0 0 0 1:-0.941609 2:-0.485178 3:-0.949041 4:0.30341 5:0.484856 6:0.166603 7:-0.99388 8:-0.999139 9:-0.992308 10:-0.0611053 11:-0.560222 12:-0.498482 13:-0.123022 14:-0.818182 15:-0.866667 16:-0.84 17:-0.886662 18:-0.999978 
0 10 0 0 0 10 0 1:-0.977882 2:-0.47002 3:-0.934615 4:0.300018 5:-0.0129199 6:-0.10996 7:-0.992656 8:-0.995693 9:-1 10:-0.158849 11:-0.578373 12:-0.514268 13:-0.143165 14:-0.727273 15:-0.333333 16:-1 17:-0.906763 18:-0.999955 
10 10 10 0 6.322727410181664 10 8.504651275228758 1:-0.957007 2:-0.477264 3:-0.942116 4:0.30264 5:-0.199642 6:-0.0491385 7:-0.990208 8:-0.990525 9:-0.994505 10:-0.111741 11:-0.569746 12:-0.506982 13:-0.134532 14:-0.0909091 16:0.04 17:-0.898628 18:-0.999944 
10 10 0 0 0 10 0 1:-0.958133 2:-0.478972 3:-0.94926 4:-0.0143904 5:-0.0765422 6:-0.0553385 7:-0.992656 8:-0.990525 9:-0.994505 10:-0.111552 11:-0.567299 12:-0.504554 13:-0.120144 15:-0.133333 16:0.12 17:-0.908604 18:-0.999934 
0 10 0 0 0 10 0 1:-0.982088 2:-0.478166 3:-0.889677 4:0.0398417 5:0.410925 6:-0.125142 7:-0.995104 8:-0.995693 9:-0.989011 10:-0.269634 11:-0.569228 12:-0.505768 13:-0.206475 14:-0.363636 15:-0.933333 16:-0.84 17:-0.868916 18:-0.999952 
10 0 0 0 10 0 0 1:-0.980385 2:-0.485175 3:-0.860786 4:-0.319773 5:-0.237826 6:-0.0224126 7:-0.995716 8:-0.990525 9:-0.986813 10:-0.27814 11:-0.56074 12:-0.498482 13:-0.245324 14:-0.636364 15:-0.8 16:-0.76 17:-0.843089 18:-0.999957 
10 10 0 0 0 10 0 1:-0.98189 2:-0.48686 3:-0.850705 4:-0.273692 5:0.244745 6:-0.273021 7:-0.992656 8:-0.992248 9:-0.994505 10:-0.268836 11:-0.559087 12:-0.497268 13:-0.268345 14:-0.818182 15:-0.6 16:-0.76 17:-0.834301 18:-0.999966 
10 0 0 0 0 0 0 1:-0.91574 2:-0.468189 3:-0.989268 4:0.282252 5:0.0523106 6:0.232239 7:-0.99694 8:-1 9:-0.992308 10:-0.00190068 11:-0.580946 12:-0.517911 13:-0.0352518 14:-0.909091 15:-1 16:-0.92 17:-0.885988 18:-0.999971 
10 0 0 0 0 0 0 1:-0.903401 2:-0.467295 3:-0.984421 4:0.247162 5:0.134664 6:0.207795 7:-0.993268 8:-1 9:-0.987912 10:0.0285522 11:-0.581426 12:-0.519126 13:-0.0223022 14:-0.818182 15:-0.933333 16:-0.84 17:-0.862301 18:-0.999947 
10 0 0 0 0 0 0 1:-0.895351 2:-0.484116 3:-0.986731 4:0.623791 5:-0.518386 6:-0.522949 7:-0.995716 8:-0.995693 9:-0.994505 10:0.046803 11:-0.561824 12:-0.502125 13:-0.071223 14:-0.909091 15:-0.933333 16:-0.92 17:-0.873283 18:-0.999954 
0 0 0 0 10 0 0 1:-0.965346 2:-0.472737 3:-0.968253 4:-0.406768 5:-0.381392 6:0.606287 7:-0.9847 8:-0.995693 9:-0.981319 10:-0.310441 11:-0.57223 12:-0.509411 13:-0.0208633 14:-0.818182 15:-0.666667 16:-0.84 17:-0.942127 18:-0.999801 
0 10 0 0 0 10 0 1:-0.964416 2:-0.476764 3:-0.965159 4:0.0968687 5:-0.241659 6:-0.584058 7:-0.982252 8:-0.990525 9:-0.96044 10:-0.311827 11:-0.571865 12:-0.509411 13:-0.0165468 14:-0.727273 15:-0.666667 16:-0.84 17:-0.938145 18:-0.999446 
0 10 0 0 0 0 0 1:-0.976247 2:-0.477805 3:-0.940852 4:-0.302455 5:0.291147 6:-0.305167 7:-0.995716 8:-0.993971 9:-0.971429 10:-0.273898 11:-0.567778 12:-0.504554 13:0.023741 14:-0.727273 15:-0.6 16:-0.6 17:-0.929861 18:-0.999742 
10 0 0 0 0 0 0 1:-0.871923 2:-0.505732 3:-0.932444 4:0.108667 5:-0.175324 6:-0.37093 7:-0.99388 8:-0.993971 9:-0.985714 10:0.099602 11:-0.536825 12:-0.474196 13:0.0539568 14:-1 15:-0.866667 16:-0.76 17:-0.807917 18:-0.999949 
10 10 0 0 0 0 0 1:-0.886346 2:-0.498942 3:-0.96743 4:0.166584 5:-0.461255 6:-0.163155 7:-0.99694 8:-0.993109 9:-0.982418 10:0.0700732 11:-0.544771 12:-0.48391 13:-0.0985611 14:-0.636364 15:-0.733333 16:-0.84 17:-0.852936 18:-0.99995 
10 0 0 0 0 0 0 1:-0.857169 2:-0.505848 3:-0.985536 4:0.0136132 5:-0.0284775 6:-0.190059 7:-0.992656 8:-1 9:-0.994505 10:0.144168 11:-0.536497 12:-0.47541 13:-0.0683453 14:-0.818182 15:-1 16:-0.84 17:-0.843056 18:-0.99996 
0 10 0 0 0 10 0 1:-0.957865 2:-0.464156 3:-0.97519 4:0.0809785 5:-0.162795 6:0.350424 7:-0.990208 8:-0.990525 9:-0.994505 10:-0.112392 11:-0.587102 12:-0.525197 13:-0.0136691 14:-0.363636 15:-0.266667 16:-0.28 17:-0.924563 18:-0.999912 
0 10 0 0 0 10 0 1:-0.936568 2:-0.478319 3:-0.990575 4:0.0687994 5:-0.156703 6:-0.141649 7:-0.992656 8:-0.990525 9:-0.992308 10:-0.0591731 11:-0.569001 12:-0.506982 13:-0.052518 14:-0.181818 15:-0.2 16:-0.44 17:-0.930535 18:-0.999926 
10 10 0 0 0 10 0 1:-0.898098 2:-0.484209 3:-0.991858 4:0.301883 5:-0.202395 6:-0.00350434 7:-0.996328 8:-0.997416 9:-0.992308 10:0.0435897 11:-0.56045 12:-0.498482 13:-0.052518 15:-0.466667 16:-0.12 17:-0.886491 18:-0.999934 
10 0 0 0 0 0 0 1:-0.890658 2:-0.513063 3:-0.979567 4:0.0967469 5:-0.483838 6:-0.0363981 7:-0.992656 8:-0.995693 9:-0.994505 10:0.0542797 11:-0.52575 12:-0.465695 13:-0.0798561 14:-0.727273 15:-1 16:-0.6 17:-0.89135 18:-0.999959 
10 0 0 0 0 0 0 1:-0.902383 2:-0.514538 3:-0.983165 4:0.0348256 5:-0.0967218 6:0.274376 7:-0.992656 8:-1 9:-0.994505 10:0.0350208 11:-0.525145 12:-0.464481 13:-0.0755396 14:-0.727273 15:-0.8 16:-0.92 17:-0.905018 18:-0.99997 
10 10 0 0 0 0 0 1:-0.906788 2:-0.514689 3:-0.994122 4:0.324129 5:-0.0573833 6:-0.306906 7:-0.992656 8:-0.991387 9:-0.994505 10:0.0194794 11:-0.526318 12:-0.464481 13:-0.0539568 14:-0.545455 15:-0.733333 16:-0.52 17:-0.926072 18:-0.999912 
10 0 0 0 0 0 10 1:-0.850061 2:-0.500934 3:-0.906185 4:0.209454 5:-0.211092 6:-0.0358318 7:-0.99694 8:-0.993971 9:-0.987912 10:0.150175 11:-0.540949 12:-0.477839 13:-0.184892 14:-0.909091 15:-0.933333 16:-0.92 17:-0.750344 18:-0.99998 
0 10 0 0 0 10 0 1:-0.896359 2:-0.52529 3:-0.773676 4:-0.0647955 5:0.472458 6:-0.070335 7:-0.993268 8:-0.995693 9:-0.986813 10:-0.475685 11:-0.516492 12:-0.458409 13:0.282734 14:-0.636364 15:-0.733333 16:-0.76 17:-0.684721 18:-0.999952 
10 0 0 0 0 0 0 1:-0.920778 2:-0.480339 3:-0.995303 4:0.244955 5:0.176499 6:0.0742578 7:-0.993268 8:-1 9:-0.994505 10:-0.0130107 11:-0.566466 12:-0.504554 13:-0.0410072 14:-0.909091 15:-1 16:-0.84 17:-0.911066 18:-0.99998 
10 10 0 0 0 10 0 1:-0.876045 2:-0.503398 3:-0.945112 4:0.433455 5:-0.156117 6:0.200397 7:-0.993268 8:-0.995693 9:-0.992308 10:0.0916002 11:-0.540281 12:-0.479053 13:0.0309353 14:-0.545455 15:-0.6 16:-0.92 17:-0.823298 18:-0.999943 
10 0 0 0 0 0 0 1:-0.971335 2:-0.489747 3:-0.947014 4:-0.072414 5:0.119086 6:-0.121685 7:-0.998164 8:-1 9:-0.989011 10:-0.131525 11:-0.555619 12:-0.494839 13:-0.12446 14:-0.818182 15:-1 16:-0.6 17:-0.925494 18:-0.999978 
10 0 0 0 0 0 0 1:-0.910638 2:-0.48153 3:-0.966443 4:-0.00880151 5:-0.105427 6:-0.229779 7:-0.999388 8:-0.991387 9:-0.995604 10:0.0127167 11:-0.565318 12:-0.503339 13:-0.0985611 14:-0.909091 15:-0.933333 16:-0.92 17:-0.86229 18:-0.999988 
10 0 0 0 0 0 0 1:-0.943418 2:-0.497645 3:-0.901411 4:-0.302419 5:-0.180997 6:0.0609634 7:-0.99694 8:-0.990525 9:-0.996703 10:-0.0616094 11:-0.547496 12:-0.48391 13:-0.190647 14:-0.818182 15:-0.933333 16:-0.84 17:-0.846342 18:-0.99997 
0 10 0 0 0 0 0 1:-0.934692 2:-0.488509 3:-0.956754 4:-0.0624646 5:-0.50026 6:-0.049228 7:-0.995716 8:-0.995693 9:-0.983516 10:-0.0456899 11:-0.557006 12:-0.494839 13:-0.107194 14:-0.636364 15:-0.666667 16:-0.92 17:-0.894005 18:-0.99994 
0 10 0 0 0 10 0 1:-0.897464 2:-0.48829 3:-0.987681 4:0.143929 5:0.0030969 6:-0.0311627 7:-0.99694 8:-0.993971 9:-0.986813 10:0.0317235 11:-0.5577 12:-0.498482 13:-0.0625899 14:-0.272727 15:-0.8 16:-0.92 17:-0.886566 18:-0.999949 
10 0 0 0 0 0 0 1:-0.959937 2:-0.467877 3:-0.930733 4:-0.34835 5:0.266907 6:0.203434 7:-0.99694 8:-1 9:-0.998901 10:-0.105672 11:-0.580946 12:-0.517911 13:-0.148921 14:-0.909091 15:-0.866667 16:-0.84 17:-0.873422 18:-0.999987 
10 0 0 0 0 0 0 1:-0.959937 2:-0.467877 3:-0.930733 4:-0.34835 5:0.266907 6:0.203434 7:-0.99694 8:-1 9:-0.998901 10:-0.105672 11:-0.580946 12:-0.517911 13:-0.148921 14:-0.909091 15:-0.866667 16:-0.84 17:-0.873422 18:-0.999987 
10 0 0 0 0 0 0 1:-0.965581 2:-0.49881 3:-0.841816 4:0.292339 5:0.143987 6:-0.313632 7:-0.993268 8:-0.993109 9:-1 10:-0.111489 11:-0.542703 12:-0.480267 13:-0.276978 14:-1 15:-1 16:-0.92 17:-0.812841 18:-0.99995 
10 0 0 0 0 0 0 1:-0.989949 2:-0.487661 3:-0.89475 4:0.0136132 5:-0.0284775 6:0.107981 7:-0.993268 8:-1 9:-0.994505 10:-0.178948 11:-0.557939 12:-0.496053 13:-0.206475 14:-1 15:-1 16:-0.92 17:-0.890376 18:-0.999945 
10 0 0 0 0 0 0 1:-0.915109 2:-0.507865 3:-0.884744 4:0.0823874 5:-0.0328993 6:0.462338 7:-0.998164 8:-0.995693 9:-0.994505 10:0.00269875 11:-0.533722 12:-0.471767 13:-0.213669 14:-0.909091 15:-0.8 16:-1 17:-0.806322 18:-0.99997 
10 0 0 0 0 0 0 1:-0.988638 2:-0.479823 3:-0.859957 4:0.159838 5:-0.299373 6:-0.290806 7:-0.990208 8:-0.993971 9:-0.991209 10:-0.180775 11:-0.569342 12:-0.508197 13:-0.25036 14:-0.818182 15:-0.933333 16:-0.68 17:-0.844887 18:-0.999936 
10 0 0 0 0 0 0 1:-0.873929 2:-0.489613 3:-0.937725 4:0.313862 5:-0.381917 6:-0.559319 7:-0.992656 8:-0.995693 9:-0.994505 10:0.099224 11:-0.556527 12:-0.493625 13:-0.134532 14:-0.818182 15:-0.866667 16:-1 17:-0.796475 18:-0.999955 
10 0 0 7.5379327031201 0 0 10 1:-0.827457 2:-0.500675 3:-0.944596 4:0.306777 5:-0.707623 6:-0.553741 7:-0.99694 8:-0.993971 9:-0.982418 10:0.209506 11:-0.54182 12:-0.479053 13:-0.129496 14:-0.818182 15:-0.933333 16:-0.92 17:-0.757173 18:-0.999936 
10 10 10 10 10 10 0 1:-0.888521 2:-0.544806 3:-0.845057 4:0.0859224 5:0.158136 6:0.215171 7:-0.997552 8:-0.995693 9:-0.994505 10:-0.498094 11:-0.490054 12:-0.43048 13:-0.269784 14:-0.454545 15:-0.0666667 16:-0.6 17:-0.771301 18:-0.999985 
10 10 0 0 0 10 0 1:-0.929822 2:-0.497454 3:-0.91065 4:0.0238418 5:-0.0821236 6:-0.0657186 7:-0.993268 8:-0.993971 9:-1 10:-0.0382131 11:-0.5438 12:-0.479053 13:-0.179137 14:-0.363636 15:-0.533333 16:-0.68 17:-0.848504 18:-0.999964 
10 10 0 0 10 10 10 1:-0.956028 2:-0.51439 3:-0.897538 4:-0.207141 5:0.133893 6:0.170801 7:-0.992656 8:-0.993971 9:-0.994505 10:-0.105399 11:-0.527377 12:-0.464481 13:-0.196403 14:0.727273 16:0.2 17:-0.884404 18:-0.999956 
10 0 0 0 0 10 0 1:-0.981853 2:-0.474034 3:-0.86806 4:0.123004 5:0.551233 6:0.0494862 7:-0.992656 8:-0.996555 9:-0.996703 10:-0.264069 11:-0.572256 12:-0.51184 13:-0.241007 14:-0.545455 15:-1 16:-1 17:-0.844523 18:-0.999956 
10 0 0 0 0 0 0 1:-0.954193 2:-0.481811 3:-0.911648 4:-0.313993 5:0.263755 6:0.015049 7:-0.993268 8:-0.995693 9:-1 10:-0.0877779 11:-0.565558 12:-0.502125 13:-0.177698 14:-0.909091 15:-1 16:-1 17:-0.85543 18:-0.999969 
10 0 0 0 0 0 0 1:-0.941256 2:-0.481424 3:-0.936218 4:0.24229 5:-0.122846 6:0.152697 7:-0.988984 8:-0.995693 9:-1 10:-0.0629325 11:-0.565104 12:-0.500911 13:-0.143165 14:-0.727273 15:-1 16:-1 17:-0.869183 18:-0.999958 
10 0 0 0 0 0 0 1:-1 2:-0.488259 3:-0.857405 4:-0.101058 5:-0.30868 6:0.0410026 7:-0.99694 8:-0.993109 9:-0.994505 10:-0.205473 11:-0.558331 12:-0.497268 13:-0.258273 14:-1 15:-0.733333 16:-0.76 17:-0.864131 18:-0.999974 
10 0 0 0 10 0 0 1:-0.982517 2:-0.497303 3:-0.867319 4:0.155272 5:-0.509593 6:0.164105 7:-0.99694 8:-0.993971 9:-0.99011 10:-0.160277 11:-0.542438 12:-0.480267 13:-0.243885 14:-0.727273 15:-0.866667 16:-0.76 17:-0.862858 18:-0.999972 
10 0 0 0 0 0 0 1:-0.969718 2:-0.508645 3:-0.854746 4:0.108432 5:-0.301685 6:0.0249856 7:-0.99694 8:-0.993971 9:-0.992308 10:-0.129362 11:-0.531313 12:-0.472981 13:-0.26259 14:-0.909091 15:-1 16:-1 17:-0.843816 18:-0.999974 
10 5.773621081421322 0 0 0 0 0 1:-0.923939 2:-0.484369 3:-0.873621 4:-0.200323 5:0.507611 6:-0.241299 7:-0.99694 8:-0.995693 9:-0.986813 10:-0.0195214 11:-0.559289 12:-0.497268 13:0.140288 14:-0.727273 15:-0.8 16:-0.92 17:-0.786628 18:-0.999938 
10 10 0 0 0 10 0 1:-0.902431 2:-0.478126 3:-0.939366 4:0.0287778 5:0.228082 6:-0.066312 7:-0.995104 8:-0.994832 9:-0.995604 10:0.0284682 11:-0.5688 12:-0.505768 13:0.0496403 14:-0.636364 15:-0.733333 16:-0.84 17:-0.820911 18:-0.999972 
0 10 0 0 0 0.8687913660757656 0 1:-0.980163 2:-0.483604 3:-0.922539 4:-0.0113388 5:0.045335 6:-0.514114 7:-0.99694 8:-0.993971 9:-0.982418 10:-0.154942 11:-0.564789 12:-0.500911 13:-0.159712 14:-0.636364 15:-0.8 16:-0.92 17:-0.903306 18:-0.999943 
10 0 0 0 0 0 0 1:-0.94917 2:-0.492674 3:-0.874591 4:-0.0365397 5:-0.252285 6:-0.424399 7:-0.996328 8:-0.993109 9:-0.984615 10:-0.0774029 11:-0.554748 12:-0.493625 13:-0.233813 14:-0.727273 15:-0.933333 16:-0.84 17:-0.818417 18:-0.999935 
10 10 0 0 0 0 0 1:-0.969426 2:-0.483986 3:-0.899345 4:0.233131 5:-0.1355 6:-0.272407 7:-0.994492 8:-0.997416 9:-0.992308 10:-0.12409 11:-0.561206 12:-0.498482 13:-0.197842 14:-0.545455 15:-0.8 16:-0.6 17:-0.864356 18:-0.999944 
10 10 0 0 0 10 0 1:-0.986199 2:-0.202339 3:-0.883218 4:0.722806 5:0.984967 6:0.736379 7:-0.99694 8:-0.995693 9:-0.994505 10:-0.247351 11:-0.545604 12:-0.499696 13:-0.173381 14:-0.636364 15:-0.8 16:-0.76 17:-0.910017 18:-0.972386 
10 10 0 0 0 10 0 1:-0.943209 2:-0.486095 3:-0.950344 4:0.273064 5:0.301644 6:0.036371 7:-0.986536 8:-0.997416 9:-0.991209 10:-0.0688971 11:-0.560828 12:-0.499696 13:-0.121583 14:-0.363636 15:-0.866667 16:-0.76 17:-0.890986 18:-0.999892 
10 0 0 0 0 0 0 1:-0.941701 2:-0.484379 3:-0.971026 4:-0.0795788 5:0.127564 6:-0.415156 7:-0.99388 8:-0.995693 9:-0.991209 10:-0.0651377 11:-0.561295 12:-0.499696 13:-0.0899281 14:-0.818182 15:-0.933333 16:-0.6 17:-0.914598 18:-0.999954 
0 10 0 0 0 10 0 1:-0.9772 2:-0.468367 3:-0.932427 4:-0.0960692 5:0.155772 6:-0.42339 7:-0.992656 8:-0.991387 9:-0.995604 10:-0.162797 11:-0.580656 12:-0.519126 13:-0.143165 14:-0.272727 15:-0.2 16:-0.52 17:-0.906078 18:-0.999946 
0 10 0 0 10 10 0 1:-0.959795 2:-0.48116 3:-0.938264 4:0.131424 5:-0.250677 6:0.228752 7:-0.991432 8:-0.993971 9:-0.995604 10:-0.105777 11:-0.566681 12:-0.503339 13:-0.134532 14:-0.0909091 15:-0.266667 16:-0.44 17:-0.894668 18:-0.999936 
0 10 0 0 0 10 0 1:-0.958602 2:-0.475626 3:-0.949242 4:-0.138143 5:-0.0409953 6:-0.181967 7:-0.991432 8:-0.991387 9:-0.995604 10:-0.104327 11:-0.570515 12:-0.508804 13:-0.123022 14:0.0909091 15:-0.0666667 16:-0.2 17:-0.901326 18:-0.999936 
10 0 0 0 0 0 0 1:-0.981935 2:-0.484269 3:-0.864932 4:-0.149982 5:-0.306038 6:-0.396891 7:-0.995716 8:-0.995693 9:-0.994505 10:-0.272217 11:-0.562051 12:-0.499696 13:-0.239568 14:-0.727273 15:-0.8 16:-0.52 17:-0.850121 18:-0.99997 
10 10 10 0 10 0 0 1:-0.984998 2:-0.48756 3:-0.851255 4:-0.0957532 5:-0.525905 6:0.138246 7:-0.992656 8:-0.993971 9:-0.992308 10:-0.261086 11:-0.560916 12:-0.497268 13:-0.26259 14:-0.636364 15:-0.733333 16:-0.68 17:-0.840456 18:-0.99995 
10 0 0 0 0 0 0 1:-0.904847 2:-0.467059 3:-0.983591 4:0.189187 5:-0.00961314 6:-0.306187 7:-0.99694 8:-0.999139 9:-0.994505 10:0.026011 11:-0.581375 12:-0.519126 13:-0.0280575 14:-0.727273 15:-1 16:-0.68 17:-0.86609 18:-0.999975 
10 0 0 0 0 0 0 1:-0.914947 2:-0.471337 3:-0.976942 4:-0.169796 5:0.198002 6:-0.3042 7:-0.99694 8:-1 9:-0.992308 10:-0.00452594 11:-0.575548 12:-0.51184 13:-0.0798561 14:-0.909091 15:-1 16:-0.92 17:-0.880679 18:-0.999969 
10 0 0 0 0 0 0 1:-0.900975 2:-0.490431 3:-0.890679 4:-0.180002 5:-0.369152 6:0.886103 7:-0.992656 8:-0.995693 9:-0.994505 10:0.0459629 11:-0.562266 12:-0.502125 13:-0.071223 14:-0.818182 15:-0.866667 16:-0.92 17:-0.850827 18:-0.997581 
10 0 0 0 0 0 0 1:-0.911806 2:-0.484174 3:-0.995419 4:0.130862 5:-0.0954511 6:0.437408 7:-0.99694 8:-0.999139 9:-0.992308 10:0.00244673 11:-0.562127 12:-0.499696 13:-0.0446043 14:-0.818182 15:-0.933333 16:-0.84 17:-0.906838 18:-0.99998 
0 0 10 2.826706605324135 10 0 0 1:-0.931374 2:-0.515503 3:-0.761485 4:-0.677831 5:-0.838293 6:0.983149 7:-0.98164 8:-0.990525 9:-0.962637 10:-0.301347 11:-0.562569 12:-0.510018 13:-0.0266187 14:-0.818182 15:-0.8 16:-0.92 17:-0.92666 18:-0.984916 
0 10 0 0 0 10 0 1:-0.981262 2:-0.460386 3:-0.884305 4:-0.564927 5:0.832596 6:-0.311225 7:-0.985924 8:-0.993109 9:-0.979121 10:-0.242101 11:-0.573063 12:-0.506982 13:0.0266187 14:-0.545455 15:-0.533333 16:-0.6 17:-0.938798 18:-0.997768 
10 0 0 0 0 0 0 1:-0.876134 2:-0.507499 3:-0.93365 4:-0.302014 5:0.299446 6:0.0352953 7:-0.993268 8:-0.993109 9:-0.987912 10:0.0955906 11:-0.538704 12:-0.477839 13:0.0510791 14:-1 15:-1 16:-0.68 17:-0.809052 18:-0.999946 
10 10 0 0 0 10 0 1:-0.88213 2:-0.500391 3:-0.959744 4:0.404067 5:-0.463123 6:-0.567881 7:-0.991432 8:-0.995693 9:-0.991209 10:0.0760588 11:-0.543598 12:-0.482089 13:-0.111511 14:-0.818182 15:-0.733333 16:-1 17:-0.84265 18:-0.999921 
10 0 0 0 0 0 0 1:-0.854551 2:-0.505848 3:-0.989395 4:0.0136132 5:-0.0284775 6:-0.0601849 7:-0.995716 8:-1 9:-0.996703 10:0.141123 11:-0.536497 12:-0.47541 13:-0.0640288 14:-0.818182 15:-1 16:-1 17:-0.847991 18:-0.999967 
10 10 0 0 0 10 0 1:-0.95486 2:-0.462119 3:-0.976065 4:-0.0188328 5:0.126415 6:-0.0821529 7:-0.99694 8:-0.992248 9:-0.986813 10:-0.0971868 11:-0.587669 12:-0.527019 13:-0.0194245 14:-0.272727 15:-0.0666667 16:0.28 17:-0.918183 18:-0.999954 
0 10 0 0 10 10 0 1:-0.928655 2:-0.478338 3:-0.976941 4:0.0327442 5:-0.280588 6:-0.219514 7:-0.990208 8:-0.989664 9:-0.974725 10:-0.0398093 11:-0.566895 12:-0.503339 13:-0.0741007 14:0.272727 15:-0.2 16:-0.04 17:-0.910359 18:-0.999825 
10 10 0 0 0 10 0 1:-0.895287 2:-0.485488 3:-0.993247 4:0.189823 5:-0.26321 6:0.118767 7:-0.992656 8:-0.997416 9:-0.996703 10:0.0447658 11:-0.560235 12:-0.498482 13:-0.052518 14:-0.0909091 15:-0.2 16:-0.2 17:-0.884318 18:-0.999935 
10 0 0 0 0 0 0 1:-0.891454 2:-0.512178 3:-0.983136 4:0.208731 5:-0.112212 6:0.0698519 7:-0.995716 8:-0.995693 9:-0.994505 10:0.0534396 11:-0.528929 12:-0.470552 13:-0.0741007 14:-0.727273 15:-0.866667 16:-1 17:-0.892206 18:-0.999973 
10 0 0 0 0 0 0 1:-0.90286 2:-0.513972 3:-0.983096 4:0.00433769 5:-0.018701 6:0.0776862 7:-0.99082 8:-0.995693 9:-0.994505 10:0.0284472 11:-0.527314 12:-0.46691 13:-0.0755396 14:-0.636364 15:-0.866667 16:-1 17:-0.906784 18:-0.99995 
10 0 0 0 0 0 10 1:-0.852604 2:-0.500934 3:-0.905729 4:0.0513567 5:-0.384151 6:0.0708808 7:-1 8:-0.993971 9:-0.994505 10:0.146794 11:-0.541239 12:-0.477839 13:-0.190647 14:-0.818182 15:-1 16:-0.92 17:-0.74907 18:-0.999981 
0 4.142255848509718 0 0 0 10 0 1:-0.888934 2:-0.531568 3:-0.766562 4:-0.225207 5:0.788976 6:-0.35689 7:-0.993268 8:-0.989664 9:-0.984615 10:-0.489861 11:-0.509832 12:-0.44748 13:0.289928 14:-0.727273 15:-0.8 16:-0.84 17:-0.675377 18:-0.999934 
10 0 0 0 0 0 0 1:-0.818197 2:-0.506538 3:-0.882214 4:0.848001 5:-0.80257 6:-0.96403 7:-0.993268 8:-1 9:-0.987912 10:0.0151529 11:-0.562871 12:-0.504554 13:-0.0467626 14:-0.909091 15:-0.933333 16:-0.92 17:-0.88572 18:-0.995551 
10 10 10 10 0 10 10 1:-0.730992 2:-0.549997 3:-0.845331 4:0.910521 5:-0.964558 6:-0.989588 7:-0.995716 8:-0.997416 9:-0.987912 10:0.0589211 11:-0.52937 12:-0.500911 13:0.0136691 14:-0.727273 15:-0.866667 16:-1 17:-0.849232 18:-0.975095 
10 0 0 0 0 0 0 1:-0.873864 2:-0.504251 3:-0.942096 4:0.389588 5:-0.279682 6:-0.0444127 7:-0.99694 8:-0.995693 9:-0.986813 10:0.100358 11:-0.537708 12:-0.476624 13:0.0366907 14:-0.636364 15:-0.933333 16:-0.84 17:-0.818374 18:-0.999966 
10 10 0 0 0 0 0 1:-0.950785 2:-0.511814 3:-0.92179 4:-0.412832 5:-0.370133 6:0.249059 7:-0.977968 8:-0.991387 9:-0.98022 10:-0.120415 11:-0.526583 12:-0.465695 13:-0.153237 14:-0.636364 15:-0.666667 16:-0.52 17:-0.922326 18:-0.999512 
-0 10 0 0 0 10 0 1:-0.937025 2:-0.076795 3:-0.908297 4:-0.949978 5:0.903142 6:-0.902425 7:-0.995104 8:-0.998277 9:-0.982418 10:-0.128606 11:-0.485072 12:-0.496053 13:-0.130935 14:-0.363636 15:-0.866667 16:-0.68 17:-0.912211 18:-0.895409 
10 0 0 0 0 0 0 1:-0.912323 2:-0.481749 3:-0.96436 4:-0.0858946 5:0.0722632 6:0.169946 7:-0.99694 8:-0.997416 9:-0.994505 10:0.00950342 11:-0.566844 12:-0.505768 13:-0.0985611 14:-0.818182 15:-0.866667 16:-0.76 17:-0.862868 18:-0.999981 
10 0 0 0 0 0 0 1:-0.944687 2:-0.496106 3:-0.902348 4:0.167265 5:-0.323415 6:0.0534644 7:-0.999388 8:-0.994832 9:-0.998901 10:-0.0667759 11:-0.548492 12:-0.488767 13:-0.190647 14:-0.727273 15:-0.933333 16:-0.84 17:-0.849222 18:-0.999973 
10 0 0 0 0 0 0 1:-0.894288 2:-0.48822 3:-0.988821 4:0.290971 5:-0.482794 6:-0.109926 7:-0.995716 8:-0.993971 9:-1 10:0.0432956 11:-0.557069 12:-0.49241 13:-0.0625899 14:-0.909091 15:-0.8 16:-0.84 17:-0.882359 18:-0.999971 
0 0 0 0 10 0 0 1:-0.960978 2:-0.472113 3:-0.934686 4:-0.129748 5:-0.209675 6:0.315883 7:-0.995716 8:-0.991387 9:-0.979121 10:-0.316217 11:-0.576872 12:-0.514268 13:-0.13741 14:-0.636364 15:-0.933333 16:-1 17:-0.889595 18:-0.999847 
0 10 0 0 0 10 0 1:-0.966309 2:-0.469987 3:-0.960851 4:0.14943 5:-0.273715 6:0.170575 7:-0.97246 8:-0.990525 9:-0.962637 10:-0.171471 11:-0.578096 12:-0.515483 13:-0.1 14:-0.727273 15:-0.4 16:-0.76 17:-0.940832 18:-0.999307 
-10 0 0 0 0 0 0 1:-0.957397 2:-0.46711 3:-0.922348 4:0.142803 5:0.135839 6:0.0744195 7:-1 8:-0.995693 9:-0.989011 10:-0.0967667 11:-0.581501 12:-0.517911 13:-0.160432 14:-0.909091 15:-1 16:-0.92 17:-0.859711 18:-0.999972 
-10 0 0 0 0 0 0 1:-0.965333 2:-0.463574 3:-0.96353 4:-0.336241 5:0.18813 6:-0.172295 7:-0.998164 8:-0.990525 9:-0.993407 10:-0.116257 11:-0.585184 12:-0.522769 13:-0.0985611 14:-0.909091 15:-0.8 16:-0.84 17:-0.910456 18:-0.999971 
-10 0 0 0 0 0 0 1:-0.756468 2:-0.224594 3:-0.970908 4:-0.997835 5:0.597279 6:-0.629076 7:-0.99694 8:-0.995693 9:-0.987912 10:0.213643 11:-0.527617 12:-0.486339 13:-0.0856115 14:-0.909091 15:-0.933333 16:-0.84 17:-0.78544 18:-0.973422 
-10 0 0 0 0 0 0 1:-0.906984 2:-0.522347 3:-0.779853 4:-0.241165 5:-0.250346 6:-0.24894 7:-0.993268 8:-0.993971 9:-0.994505 10:0.0214325 11:-0.517236 12:-0.458409 13:-0.371942 14:-1 15:-1 16:-1 17:-0.700049 18:-0.999957 
-10 0 0 0 0 0 0 1:-0.886936 2:-0.509756 3:-0.853484 4:0.0753952 5:-0.252664 6:-0.136787 7:-1 8:-0.990525 9:-0.994505 10:0.068225 11:-0.531098 12:-0.470552 13:-0.255396 14:-1 15:-0.933333 16:-0.84 17:-0.74527 18:-0.99998 
-10 2.175123626854524 0 0 0 0 0 1:-0.866967 2:-0.505666 3:-0.833803 4:0.187014 5:0.0197597 6:0.67088 7:-0.99694 8:-0.995693 9:-0.996703 10:0.115375 11:-0.536144 12:-0.47541 13:-0.285612 14:-0.545455 15:-0.8 16:-0.84 17:-0.696709 18:-0.999971 
-10 0 0 0 0 10 0 1:-0.959011 2:-0.545654 3:-0.790226 4:0.131544 5:0.0650197 6:0.0883539 7:-1 8:-0.995693 9:-1 10:-0.326697 11:-0.488061 12:-0.426837 13:-0.351799 14:-1 15:-0.733333 16:-1 17:-0.800767 18:-0.999989 
-10 0 0 0 0 0 0 1:-0.876344 2:-0.518412 3:-0.846232 4:0.081102 5:-0.14032 6:-0.0907959 7:-1 8:-1 9:-1 10:0.089479 11:-0.520907 12:-0.459624 13:-0.269784 14:-0.818182 15:-1 16:-0.68 17:-0.733764 18:-0.999993 
-10 10 0 0 0 10 10 1:-0.911492 2:-0.520184 3:-0.872167 4:-0.0670197 5:0.10309 6:-0.229923 7:-0.999388 8:-0.995693 9:-0.995604 10:0.0114356 11:-0.520427 12:-0.459016 13:-0.235252 15:-0.333333 16:-0.28 17:-0.801313 18:-0.999988 
-10 0 0 0 0 0 0 1:-0.963386 2:-0.492406 3:-0.808863 4:-0.600246 5:0.0809486 6:-0.470071 7:-0.99694 8:-0.995693 9:-0.994505 10:-0.114555 11:-0.551696 12:-0.489982 13:-0.327338 14:-0.909091 15:-1 16:-0.84 17:-0.770241 18:-0.999968 
-4.890099409404475 0 0 0 0 0 0 1:-0.849744 2:-0.512449 3:-0.8549 4:0.142347 5:-0.385177 6:-0.119626 7:-0.992656 8:-0.995693 9:-0.987912 10:0.146541 11:-0.528727 12:-0.466909 13:-0.261151 14:-0.909091 15:-0.6 16:-0.84 17:-0.707755 18:-0.99995 
-10 0 0 0 0 0 0 1:-0.827305 2:-0.518469 3:-0.89097 4:-0.144808 5:0.034297 6:0.0606294 7:-0.99694 8:-1 9:-0.994505 10:0.207594 11:-0.522017 12:-0.460838 13:-0.215108 14:-1 15:-1 16:-1 17:-0.716842 18:-0.999986 
-0 0 6.132077609820568 9.520320402684511 10 0 10 1:-0.87274 2:-0.553124 3:-0.729479 4:-0.470585 5:-0.816543 6:0.845756 7:-0.977356 8:-0.980189 9:-0.925275 10:0.107436 11:-0.478942 12:-0.418336 13:-0.410072 14:-0.909091 15:-0.6 16:-0.6 17:-0.643599 18:-0.999018 
-10 0 0 0 0 0 0 1:-0.864525 2:-0.515266 3:-0.890115 4:0.697365 5:-0.795077 6:-0.812018 7:-0.961444 8:-0.989664 9:-0.98022 10:0.114681 11:-0.523656 12:-0.463267 13:-0.215108 14:-0.727273 15:-0.733333 16:-0.76 17:-0.76398 18:-0.999412 
-0 0 10 10 10 10 10 1:-0.778469 2:-0.559822 3:-0.734876 4:-0.540581 5:-0.951345 6:0.492286 7:-0.966952 8:-0.944014 9:-0.675824 10:0.299688 11:-0.460854 12:-0.379478 13:-0.488489 14:-0.818182 15:-0.666667 16:-0.92 17:-0.599844 18:-0.978622 
-0 0 0 0 0 0 10 1:-0.630924 2:-0.61989 3:-0.86122 4:0.194618 5:0.315023 6:0.254933 7:-0.995716 8:-0.992248 9:-1 10:0.665774 11:-0.400563 12:-0.344262 13:-0.246763 14:-0.545455 15:-0.733333 16:-0.84 17:-0.559695 18:-0.999974 
-0 0 0 0 0 0 10 1:-0.601428 2:-0.646905 3:-0.866504 4:-0.0338071 5:0.442383 6:0.154498 7:-0.999388 8:-0.997416 9:-0.992308 10:0.736509 11:-0.368966 12:-0.313297 13:-0.239568 14:-0.909091 15:-1 16:-0.92 17:-0.555146 18:-0.999981 
-0 10 0 0 0 10 10 1:-0.830132 2:-0.604811 3:-0.664959 4:0.209443 5:-0.227861 6:-0.20644 7:-0.992656 8:-0.993109 9:-0.994505 10:0.199614 11:-0.42116 12:-0.364906 13:-0.528777 14:-0.363636 15:-0.466667 16:-0.84 17:-0.571405 18:-0.999947 
-0 0 0 10 0 0 10 1:-0.900095 2:-0.623629 3:-0.603224 4:0.572534 5:0.269251 6:0.661903 7:-0.974908 8:-0.997416 9:-0.987912 10:0.0218316 11:-0.395795 12:-0.339405 13:-0.619424 14:-0.727273 15:-0.733333 16:-0.76 17:-0.614197 18:-0.999569 
-0 0 0 0 0 0 10 1:-0.820734 2:-0.593065 3:-0.693744 4:0.303171 5:0.300922 6:0.707428 7:-0.993268 8:-0.995693 9:-0.986813 10:0.218263 11:-0.434682 12:-0.379478 13:-0.491367 14:-0.909091 15:-0.866667 16:-0.68 17:-0.578094 18:-0.999945 
-10 0 0 0 10 0 0 1:-0.919452 2:-0.522636 3:-0.796906 4:-0.442167 5:-0.461143 6:0.68609 7:-0.997552 8:-0.993971 9:-0.987912 10:-0.0135778 11:-0.515773 12:-0.454766 13:-0.343165 14:-0.818182 15:-0.6 16:-1 17:-0.736986 18:-0.999974 
-10 0 0 0 0 0 0 1:-0.901759 2:-0.50202 3:-0.879627 4:0.163808 5:-0.253741 6:0.0497682 7:-0.992656 8:-0.997416 9:-0.991209 10:0.0319335 11:-0.54023 12:-0.477839 13:-0.220863 14:-0.454545 15:-0.933333 16:-0.68 17:-0.784755 18:-0.999971 
-10 10 0 0 10 10 10 1:-0.932403 2:-0.476911 3:-0.93294 4:0.0234526 5:0.0700583 6:-0.0322957 7:-0.99694 8:-0.995693 9:-0.995604 10:-0.0417205 11:-0.570212 12:-0.506982 13:-0.144604 14:0.272727 15:-0.2 16:0.04 17:-0.853128 18:-0.999972 
-10 10 10 10 10 10 10 1:-0.850042 2:-0.497467 3:-0.960385 4:0.173748 5:-0.0511415 6:0.242014 7:-0.988372 8:-0.991387 9:-0.986813 10:0.135284 11:-0.547042 12:-0.486339 13:-0.1 14:0.0909091 15:0.133333 16:0.04 17:-0.815517 18:-0.999864 
-10 10 0 0 10 10 10 1:-0.897176 2:-0.486714 3:-0.982118 4:-0.00500698 5:0.0385182 6:0.317874 7:-0.995716 8:-0.997416 9:-0.989011 10:0.0411744 11:-0.559541 12:-0.497268 13:-0.0654676 14:0.0909091 15:-0.0666667 16:0.2 17:-0.878731 18:-0.999964 
-10 10 0 0 10 10 0 1:-0.987832 2:-0.517705 3:-0.757247 4:-0.481584 5:-0.106841 6:0.603437 7:-0.993268 8:-0.991387 9:-0.989011 10:-0.255689 11:-0.522521 12:-0.462052 13:-0.396403 14:-0.545455 15:-0.666667 16:-0.76 17:-0.773281 18:-0.999956 
-10 0 0 0 0 0 0 1:-0.973848 2:-0.540541 3:-0.706861 4:-0.388964 5:0.157124 6:-0.224886 7:-0.99694 8:-0.991387 9:-0.995604 10:-0.137364 11:-0.495907 12:-0.436551 13:-0.471223 14:-0.909091 15:-0.933333 16:-1 17:-0.721573 18:-0.999977 
-10 0 0 0 0 0 0 1:-0.976985 2:-0.545319 3:-0.685009 4:-0.305467 5:-0.144901 6:-0.188035 7:-0.99694 8:-0.990525 9:-0.993407 10:-0.150805 11:-0.487393 12:-0.428051 13:-0.5 14:-0.454545 15:-0.8 16:-0.68 17:-0.713867 18:-0.99994 
-0 0 0 0 0 0 10 1:-0.721656 2:-0.664138 3:-0.645957 4:-0.302918 5:-0.406745 6:0.0873938 7:-1 8:-0.997416 9:-0.998901 10:0.454746 11:-0.349945 12:-0.296903 13:-0.558993 14:-0.818182 15:-0.866667 16:-1 17:-0.4785 18:-0.999982 
-0 0 0 0 0 0 10 1:-0.700719 2:-0.58578 3:-0.802248 4:0.310045 5:-0.0720328 6:0.0211596 7:-0.999388 8:-0.993971 9:-0.992308 10:0.502883 11:-0.440471 12:-0.383121 13:-0.334532 14:-1 15:-0.866667 16:-0.68 17:-0.545374 18:-0.999958 
-0 10 10 10 0 10 10 1:-0.783423 2:-0.52777 3:-0.846572 4:0.460071 5:-0.561606 6:-0.396619 7:-0.986536 8:-0.991387 9:-0.992308 10:0.30937 11:-0.508091 12:-0.44748 13:-0.269784 14:-0.363636 15:-0.266667 16:-0.28 17:-0.631986 18:-0.999673 
-0 0 0 0 0 0 10 1:-0.84002 2:-0.534548 3:-0.771974 4:0.598763 5:-0.787894 6:-0.402909 7:-0.99082 8:-0.98708 9:-0.984615 10:0.178339 11:-0.500511 12:-0.440194 13:-0.379137 14:-0.545455 15:-0.933333 16:-0.84 17:-0.626324 18:-0.999859 
-10 0 0 0 0 0 0 1:-0.852862 2:-0.503287 3:-0.94986 4:0.344429 5:0.467039 6:0.797699 7:-0.998164 8:-1 9:-0.98022 10:0.146857 11:-0.540735 12:-0.479053 13:-0.114388 14:-1 15:-1 16:-1 17:-0.802009 18:-0.99994 
-0 0 0 0 0 0 10 1:-0.839925 2:-0.531264 3:-0.827544 4:0.887864 5:-0.929668 6:-0.920885 7:-0.986536 8:-0.991387 9:-0.991209 10:0.19535 11:-0.500259 12:-0.440194 13:-0.307194 14:-0.909091 15:-0.866667 16:-0.92 17:-0.671257 18:-0.999689 
-10 0 0 0 0 0 0 1:-0.94506 2:-0.503248 3:-0.828062 4:0.472195 5:-0.521159 6:-0.877996 7:-0.99694 8:-0.989664 9:-0.986813 10:-0.067994 11:-0.535349 12:-0.47541 13:-0.305755 14:-0.909091 15:-0.8 16:-0.76 17:-0.778248 18:-0.999672 
-10 10 10 10 10 10 10 1:-0.92825 2:-0.490076 3:-0.847116 4:0.865954 5:-0.915756 6:-0.948942 7:-0.900245 8:-0.963824 9:-0.638462 10:-0.158219 11:-0.545364 12:-0.479053 13:-0.259712 14:-0.454545 15:-0.8 16:-0.52 17:-0.826027 18:-0.98213 
-10 10 0 0 0 0 0 1:-0.9749 2:-0.485214 3:-0.894725 4:0.131512 5:-0.404878 6:-0.0916097 7:-0.992656 8:-0.997416 9:-0.982418 10:-0.143916 11:-0.5605 12:-0.498482 13:-0.180576 14:-0.545455 15:-0.8 16:-0.44 17:-0.881385 18:-0.999686 
-10 0 0 0 0 0 0 1:-0.778619 2:-0.542321 3:-0.869876 4:0.470864 5:-0.273614 6:-0.790393 7:-0.988984 8:-0.995693 9:-0.982418 10:0.315986 11:-0.492211 12:-0.434123 13:0.151799 14:-0.909091 15:-1 16:-0.92 17:-0.666301 18:-0.999905 
-10 10 0 0 10 10 0 1:-0.987132 2:-0.47664 3:-0.861297 4:0.0611673 5:-0.236949 6:-0.369215 7:-0.993268 8:-0.995693 9:-0.975824 10:-0.223409 11:-0.568787 12:-0.508197 13:-0.251079 14:-0.272727 15:-0.133333 16:-0.52 17:-0.860524 18:-0.999805 
-10 10 10 0 10 10 10 1:-0.836495 2:-0.501073 3:-0.968156 4:-0.193121 5:-0.220412 6:0.406825 7:-0.99082 8:-0.995693 9:-0.983516 10:0.172689 11:-0.539865 12:-0.479053 13:-0.0913669 14:0.0909091 16:-0.04 17:-0.810144 18:-0.999929 
-0 10 0 10 0 10 10 1:-0.745759 2:-0.545656 3:-0.982323 4:-0.154733 5:-0.124439 6:0.387448 7:-0.995104 8:-0.991387 9:-0.983516 10:0.399385 11:-0.489007 12:-0.429265 13:-0.0352518 15:0.0666667 16:-0.2 17:-0.76003 18:-0.999892 
-0 10 0 0 0 0 10 1:-0.739514 2:-0.577046 3:-0.87537 4:0.323202 5:-0.420876 6:-0.166571 7:-0.99388 8:-0.990525 9:-0.989011 10:0.410831 11:-0.449452 12:-0.390407 13:-0.232374 14:-0.454545 15:-0.466667 16:-0.6 17:-0.660371 18:-0.999939 
-10 0 0 0 0 0 0 1:-0.819095 2:-0.545845 3:-0.899684 4:0.45418 5:0.0087849 6:-0.0546633 7:-0.995716 8:-1 9:-0.994505 10:0.224774 11:-0.489525 12:-0.43048 13:-0.190647 14:-0.818182 15:-0.933333 16:-0.92 17:-0.749787 18:-0.999962 
-10 0 0 0 0 0 0 1:-0.828383 2:-0.507019 3:-0.935688 4:0.231099 5:0.156625 6:0.32498 7:-0.993268 8:-0.990525 9:-0.986813 10:0.199677 11:-0.530997 12:-0.470552 13:-0.141727 14:-0.636364 15:-0.933333 16:-0.84 17:-0.764419 18:-0.999847 
-10 0 0 0 0 0 0 1:-0.971795 2:-0.516512 3:-0.77601 4:0.328113 5:-0.0682175 6:0.00444311 7:-0.99694 8:-0.995693 9:-1 10:-0.13289 11:-0.524237 12:-0.462052 13:-0.371942 14:-1 15:-1 16:-1 17:-0.769289 18:-0.999973 
-10 10 10 0 10 10 0 1:-0.905449 2:-0.529959 3:-0.777028 4:-0.329195 5:-0.161459 6:0.0458818 7:-0.993268 8:-0.993109 9:-0.995604 10:-0.458022 11:-0.506174 12:-0.446266 13:-0.367626 14:-0.727273 15:-0.666667 16:-0.6 17:-0.704994 18:-0.999956 
-10 10 0 0 0 10 0 1:-0.87612 2:-0.545705 3:-0.75703 4:-0.0995897 5:0.0818999 6:-0.702466 7:-0.993268 8:-0.993109 9:-0.986813 10:-0.524221 11:-0.49037 12:-0.431694 13:-0.397842 14:-0.727273 15:-0.866667 16:-0.76 17:-0.664824 18:-0.999942 
-10 10 0 0 0 0 0 1:-0.914287 2:-0.478866 3:-0.993336 4:0.0049171 5:0.101583 6:-0.0647679 7:-0.991432 8:-0.997416 9:-0.992308 10:9.45111e-005 11:-0.56721 12:-0.504554 13:-0.042446 14:-0.818182 15:-0.666667 16:-0.6 17:-0.902738 18:-0.999952 
-10 0 0 0 0 0 0 1:-0.919592 2:-0.484457 3:-0.985859 4:0.108964 5:0.0138723 6:0.566808 7:-0.993268 8:-0.999139 9:-0.979121 10:-0.00767623 11:-0.561824 12:-0.500304 13:-0.0381295 14:-0.727273 15:-1 16:-0.76 17:-0.907555 18:-0.99992 
-10 10 0 0 0 0 0 1:-0.882521 2:-0.502138 3:-0.98009 4:0.341838 5:0.279839 6:0.444638 7:-0.995716 8:-0.993109 9:-1 10:0.0844176 11:-0.539246 12:-0.477839 13:-0.0784173 14:-0.636364 15:-0.733333 16:-1 17:-0.864281 18:-0.999915 
-10 0 0 0 0 0 0 1:-0.927474 2:-0.513329 3:-0.864808 4:0.0571511 5:-0.311687 6:0.178881 7:-0.99694 8:-0.997416 9:-0.991209 10:-0.0284472 11:-0.526343 12:-0.465695 13:-0.24964 14:-0.818182 15:-0.866667 16:-0.52 17:-0.806205 18:-0.999971 
-0 10 0 10 0 0 10 1:-0.818487 2:-0.605958 3:-0.721608 4:0.168485 5:-0.790338 6:-0.516356 7:-0.995716 8:-0.990525 9:-0.987912 10:0.227252 11:-0.412255 12:-0.352763 13:-0.464029 14:-0.181818 15:-0.533333 16:-0.76 17:-0.61652 18:-0.99986 
-10 0 0 0 0 0 0 1:-0.843999 2:-0.499791 3:-0.925105 4:-0.445251 5:-0.247634 6:0.27205 7:-0.992656 8:-0.993971 9:-0.986813 10:0.163679 11:-0.543422 12:-0.482696 13:-0.158993 14:-0.727273 15:-0.933333 16:-0.6 17:-0.762321 18:-0.999944 
-10 10 0 0 10 10 0 1:-0.985784 2:-0.490582 3:-0.946637 4:0.580089 5:-0.627839 6:-0.895493 7:-0.976744 8:-0.995693 9:-0.972527 10:-0.195329 11:-0.553071 12:-0.491196 13:-0.120144 14:-0.0909091 15:-0.733333 16:-0.6 17:-0.951278 18:-0.99962 
-10 10 0 0 0 0 0 1:-0.965361 2:-0.496409 3:-0.96264 4:0.215156 5:-0.346757 6:-0.784652 7:-0.976132 8:-0.996555 9:-0.98022 10:-0.145302 11:-0.54766 12:-0.486339 13:-0.0920863 14:-0.727273 15:-0.866667 16:-0.36 17:-0.961853 18:-0.999151 
-10 0 0 0 0 0 0 1:-0.937472 2:-0.48558 3:-0.914111 4:0.3967 5:-0.126264 6:-0.180855 7:-0.99694 8:-1 9:-0.991209 10:-0.0539647 11:-0.561799 12:-0.500911 13:-0.176259 14:-1 15:-1 16:-0.76 17:-0.844341 18:-0.999971 
-10 10 0 0 0 0 0 1:-0.891252 2:-0.49689 3:-0.921256 4:0.231806 5:-0.0555642 6:0.253028 7:-0.99388 8:-0.993109 9:-0.987912 10:0.0591101 11:-0.547407 12:-0.485124 13:-0.157554 14:-0.818182 15:-0.733333 16:-0.76 17:-0.809148 18:-0.999962 
-10 0 0 0 0 0 0 1:-0.875227 2:-0.501995 3:-0.933231 4:-0.225512 5:-0.429602 6:0.00713705 7:-0.99694 8:-0.995693 9:-0.992308 10:0.0912432 11:-0.541328 12:-0.479053 13:-0.141727 14:-0.818182 15:-0.8 16:-0.92 17:-0.809191 18:-0.999966 
-10 0 0 0 0 0 0 1:-0.995722 2:-0.47849 3:-0.887278 4:0.283628 5:-0.168326 6:-0.591717 7:-0.995716 8:-0.996555 9:-0.998901 10:-0.204759 11:-0.567992 12:-0.504554 13:-0.207914 14:-0.727273 15:-1 16:-0.76 17:-0.888642 18:-0.999949 
-10 10 0 0 10 0 0 1:-0.857073 2:-0.492305 3:-0.971 4:0.280801 5:-0.169967 6:0.772576 7:-0.99082 8:-0.995693 9:-0.982418 10:0.142257 11:-0.551002 12:-0.489982 13:-0.0942446 14:-0.363636 15:-0.933333 16:-0.76 17:-0.815345 18:-0.999872 
-10 10 0 0 0 0 0 1:-0.840334 2:-0.497417 3:-0.944647 4:0.782394 5:-0.656794 6:-0.810186 7:-0.970012 8:-0.986219 9:-0.978022 10:0.160487 11:-0.546638 12:-0.486339 13:-0.12446 14:-0.636364 15:-0.733333 16:-0.76 17:-0.787667 18:-0.99909 
-10 0 0 0 0 0 0 1:-0.959379 2:-0.469662 3:-0.919892 4:-0.185018 5:0.00943142 6:0.401361 7:-0.99694 8:-0.995693 9:-0.986813 10:-0.103571 11:-0.579433 12:-0.517911 13:-0.166187 14:-0.909091 15:-0.933333 16:-0.6 17:-0.863329 18:-0.999959 
-10 10 0 0 0 10 0 1:-0.971535 2:-0.464477 3:-0.961659 4:0.0541622 5:0.509571 6:0.0122864 7:-0.992656 8:-0.991387 9:-0.982418 10:-0.140283 11:-0.584756 12:-0.522769 13:-0.106475 14:-0.909091 15:-0.8 16:-0.84 17:-0.917327 18:-0.999935 
-10 10 10 0 0 10 0 1:-0.877954 2:-0.477789 3:-0.962533 4:1 5:0.662928 6:0.767058 7:-0.905141 8:-0.971576 9:-0.963736 10:-0.0337607 11:-0.572394 12:-0.515483 13:-0.0913669 14:-0.818182 15:-0.866667 16:-0.92 17:-0.886855 18:-0.994389 
-10 0 0 0 0 0 0 1:-0.885081 2:-0.513254 3:-0.853953 4:0.268811 5:-0.420237 6:0.110452 7:-0.999388 8:-0.993109 9:-0.993407 10:0.0687291 11:-0.53019 12:-0.470552 13:-0.261151 14:-0.909091 15:-0.866667 16:-0.84 17:-0.744832 18:-0.999967 
-10 0 0 0 0 0 0 1:-0.84121 2:-0.528744 3:-0.862707 4:0.0136132 5:-0.119915 6:0.0398086 7:-1 8:-1 9:-0.987912 10:0.174747 11:-0.508798 12:-0.448695 13:-0.243885 14:-1 15:-1 16:-1 17:-0.721017 18:-0.999977 
-0 10 0 0 0 0 10 1:-0.703867 2:-0.563468 3:-0.964071 4:0.730566 5:0.586813 6:0.739703 7:-0.990208 8:-0.990525 9:-0.974725 10:0.495406 11:-0.469091 12:-0.409836 13:-0.0971223 14:-0.636364 15:-0.8 16:-1 17:-0.695725 18:-0.999881 
-10 10 0 0 0 10 0 1:-0.962009 2:-0.545591 3:-0.790203 4:-0.167716 5:-0.0115757 6:-0.113026 7:-0.995716 8:-0.995693 9:-1 10:-0.322601 11:-0.488162 12:-0.426837 13:-0.351799 14:-0.727273 15:-0.666667 16:-1 17:-0.802737 18:-0.999985 
-10 10 0 0 0 0 0 1:-0.87443 2:-0.519036 3:-0.847037 4:-0.125406 5:0.062672 6:0.0313137 7:-0.995104 8:-1 9:-1 10:0.0965357 11:-0.521209 12:-0.459624 13:-0.269784 15:-0.933333 16:-1 17:-0.730714 18:-0.999982 
-10 10 0 0 0 0 0 1:-0.909263 2:-0.520201 3:-0.872303 4:-0.391529 5:0.0736762 6:-0.0816431 7:-0.999388 8:-0.995693 9:-0.992308 10:0.0137878 11:-0.520389 12:-0.458409 13:-0.235252 14:-0.636364 15:-0.6 16:-0.2 17:-0.801345 18:-0.999985 
-10 0 0 0 0 0 0 1:-0.963398 2:-0.492724 3:-0.802804 4:0.223129 5:0.376976 6:0.319536 7:-0.99694 8:-0.996555 9:-0.996703 10:-0.113274 11:-0.552415 12:-0.49241 13:-0.335971 14:-0.818182 15:-1 16:-0.76 17:-0.763124 18:-0.999992 
-10 0 0 0 0 0 0 1:-0.823885 2:-0.51844 3:-0.893398 4:-0.262229 5:0.132731 6:-0.578915 7:-0.99694 8:-1 9:-0.987912 10:0.222968 11:-0.522017 12:-0.460838 13:-0.209353 14:-0.818182 15:-1 16:-0.84 17:-0.711148 18:-0.999971 
-0 0 0 0 0 0 7.134261783679503 1:-0.871821 2:-0.539291 3:-0.764739 4:0.234783 5:-0.846901 6:-0.277682 7:-0.993268 8:-0.991387 9:-0.965934 10:0.100211 11:-0.496159 12:-0.437766 13:-0.383453 14:-0.909091 15:-0.733333 16:-0.76 17:-0.664267 18:-0.999802 
-10 0 0 0 0 0 10 1:-0.860423 2:-0.515567 3:-0.873952 4:0.538429 5:-0.846845 6:-0.518056 7:-0.983476 8:-0.983635 9:-0.98022 10:0.105168 11:-0.519746 12:-0.458409 13:-0.238129 14:-0.727273 15:-0.666667 16:-0.68 17:-0.755588 18:-0.999481 
-10 10 0 0 0 0 10 1:-0.783752 2:-0.510086 3:-0.98041 4:0.703662 5:-0.337438 6:-0.628458 7:-0.98164 8:-0.990525 9:-0.974725 10:0.314621 11:-0.525914 12:-0.464481 13:-0.0748201 14:-0.545455 15:-0.6 16:-0.44 17:-0.762342 18:-0.999538 
-0 0 0 6.120622295140782 0 0 10 1:-0.630415 2:-0.623013 3:-0.867298 4:0.235461 5:0.136186 6:0.771393 7:-0.995104 8:-0.992248 9:-0.992308 10:0.672852 11:-0.398254 12:-0.342441 13:-0.239568 14:-0.454545 15:-0.666667 16:-0.68 17:-0.565111 18:-0.999957 
-0 0 0 0 0 0 10 1:-0.834586 2:-0.606027 3:-0.661418 4:-0.0358161 5:0.202699 6:0.264856 7:-0.999388 8:-0.997416 9:-1 10:0.191381 11:-0.419066 12:-0.361263 13:-0.535971 14:-0.818182 15:-0.866667 16:-0.92 17:-0.571341 18:-0.999988 
-0 0 0 0 0 0 10 1:-0.929144 2:-0.618816 3:-0.604609 4:0.0993237 5:-0.473517 6:0.252985 7:-0.99082 8:-0.993971 9:-0.989011 10:-0.0310725 11:-0.403817 12:-0.346691 13:-0.613669 14:-0.909091 15:-0.733333 16:-0.68 17:-0.638023 18:-0.999791 
-0 0 0 0 0 0 10 1:-0.814892 2:-0.593987 3:-0.704891 4:-0.0585337 5:-0.31914 6:0.47722 7:-0.995716 8:-0.997416 9:-0.989011 10:0.233049 11:-0.434518 12:-0.378264 13:-0.47554 14:-0.454545 15:-1 16:-0.44 17:-0.581648 18:-0.999963 
-10 0 0 0 0 0 0 1:-0.914777 2:-0.523777 3:-0.798792 4:-0.0955689 5:-0.067044 6:0.222533 7:-0.99694 8:-0.995693 9:-0.994505 10:-0.00467295 11:-0.51518 12:-0.455373 13:-0.33741 14:-0.818182 15:-0.933333 16:-0.84 17:-0.735348 18:-0.999973 
-10 0 0 0 0 0 0 1:-0.902041 2:-0.503484 3:-0.885261 4:-0.237824 5:-0.32833 6:0.00332543 7:-0.992656 8:-0.997416 9:-1 10:0.036764 11:-0.538982 12:-0.477839 13:-0.213669 14:-0.909091 15:-0.666667 16:-1 17:-0.787592 18:-0.999963 
-10 10 0 0 10 10 0 1:-0.934817 2:-0.475534 3:-0.933289 4:-0.000703539 5:0.103111 6:-0.274819 7:-0.99694 8:-0.993971 9:-0.995604 10:-0.0455008 11:-0.570616 12:-0.50759 13:-0.146043 14:-0.0909091 16:-0.44 17:-0.853021 18:-0.99997 
-10 10 10 0 10 10 10 1:-0.86484 2:-0.493093 3:-0.958333 4:0.0285796 5:-0.181304 6:0.248561 7:-0.995716 8:-0.993971 9:-0.986813 10:0.117118 11:-0.550775 12:-0.489375 13:-0.102878 14:0.0909091 15:-0.333333 16:0.2 17:-0.819017 18:-0.999952 
-10 10 0 0 0 10 10 1:-0.893341 2:-0.48447 3:-0.981646 4:-0.0502976 5:-0.257344 6:-0.116084 7:-0.995104 8:-0.996555 9:-0.984615 10:0.0388852 11:-0.559819 12:-0.498482 13:-0.0618705 14:-0.181818 16:0.12 17:-0.882423 18:-0.999919 
-10 0 0 0 10 0 0 1:-0.991053 2:-0.515667 3:-0.751054 4:-0.172727 5:-0.32289 6:0.424111 7:-0.995716 8:-0.995693 9:-0.994505 10:-0.251026 11:-0.523656 12:-0.463267 13:-0.407914 14:-0.636364 15:-0.933333 16:-0.6 17:-0.767319 18:-0.999976 
-10 0 0 0 10 0 0 1:-0.972673 2:-0.543126 3:-0.703819 4:0.00212088 5:-0.285312 6:0.241964 7:-0.997552 8:-0.993971 9:-0.992308 10:-0.135515 11:-0.489802 12:-0.428658 13:-0.47554 14:-0.636364 15:-0.733333 16:-0.76 17:-0.723874 18:-0.999971 
-0 0 0 0 0 0 10 1:-0.721878 2:-0.665075 3:-0.645944 4:0.0695652 5:0.0155998 6:-0.210533 7:-1 8:-1 9:-0.998901 10:0.454578 11:-0.34881 12:-0.294475 13:-0.557554 14:-1 15:-1 16:-0.84 17:-0.479891 18:-1 
-0 0 0 0 0 0 10 1:-0.705748 2:-0.585992 3:-0.798934 4:-0.247751 5:-0.122974 6:0.167045 7:-0.992656 8:-0.995693 9:-0.992308 10:0.494356 11:-0.44201 12:-0.381906 13:-0.341727 14:-0.909091 15:-0.733333 16:-0.68 17:-0.541724 18:-0.999969 
-0 0 0 0 0 0 10 1:-0.775978 2:-0.527982 3:-0.844586 4:0.152146 5:-0.241856 6:-0.523709 7:-0.993268 8:-0.995693 9:-0.992308 10:0.326109 11:-0.508129 12:-0.448087 13:-0.274101 14:-0.727273 15:-0.6 16:-0.68 17:-0.622653 18:-0.999945 
-10 0 0 0 0 0 0 1:-0.846343 2:-0.50627 3:-0.936292 4:0.543061 5:-0.55104 6:-0.87666 7:-0.99694 8:-0.995693 9:-0.991209 10:0.155845 11:-0.537809 12:-0.479053 13:-0.133094 14:-1 15:-1 16:-1 17:-0.784295 18:-0.999933 
-10 0 0 0 0 0 0 1:-0.941497 2:-0.506434 3:-0.828199 4:-0.409201 5:0.0298669 6:-0.244664 7:-1 8:-0.991387 9:-0.987912 10:-0.0611263 11:-0.536396 12:-0.47541 13:-0.298561 14:-0.818182 15:-0.666667 16:-0.6 17:-0.776717 18:-0.999932 
-10 10 0 0 0 0 0 1:-0.974152 2:-0.48402 3:-0.905234 4:0.599979 5:-0.688554 6:-0.907862 7:-0.97246 8:-0.995693 9:-0.937363 10:-0.15908 11:-0.564133 12:-0.501518 13:-0.176259 14:-0.727273 15:-0.866667 16:-0.68 17:-0.903434 18:-0.999117 
-10 10 0 0 0.1680973164996332 10 0 1:-0.945437 2:-0.482136 3:-0.9369 4:0.418921 5:-0.481902 6:-0.0817099 7:-0.97246 8:-0.993971 9:-0.972527 10:-0.0913062 11:-0.56417 12:-0.499696 13:-0.138129 14:-0.636364 15:-0.666667 16:-0.68 17:-0.890098 18:-0.999444 
-10 0 0 0 0 0 0 1:-0.774276 2:-0.54276 3:-0.877731 4:0.288371 5:-0.231275 6:0.0683041 7:-1 8:-0.993971 9:-0.994505 10:0.331338 11:-0.490571 12:-0.434123 13:0.134532 14:-1 15:-0.866667 16:-0.92 17:-0.667307 18:-0.999969 
-10 0 0 0 0 0 0 1:-0.781915 2:-0.536104 3:-0.969467 4:0.374276 5:-0.335387 6:-0.505085 7:-0.993268 8:-0.992248 9:-0.996703 10:0.312856 11:-0.498695 12:-0.43898 13:-0.0942446 14:-0.727273 15:-0.8 16:-0.44 17:-0.771087 18:-0.999957 
-0 0 0 0 0 0 8.733331884107594 1:-0.68865 2:-0.592743 3:-0.987829 4:0.508987 5:0.503276 6:0.601256 7:-0.995104 8:-0.993971 9:-0.987912 10:0.528085 11:-0.434127 12:-0.375835 13:-0.0553957 14:-0.818182 15:-0.8 16:-0.52 17:-0.74328 18:-0.999947 
-10 10 0 0 0 10 0 1:-0.99799 2:-0.480524 3:-0.857731 4:-0.207254 5:-0.0971144 6:-0.156228 7:-1 8:-0.990525 9:-0.986813 10:-0.215638 11:-0.566113 12:-0.503339 13:-0.264029 14:-0.818182 15:-0.0666667 16:-0.2 17:-0.856596 18:-0.999876 
